svm_type c_svc
kernel_type rbf
gamma 0.25
nr_class 3
total_sv 4
rho -0.5055479981215434 -0.6432833248095449 0.0
label 0 -1 1
nr_sv 2 1 1
SV
0.494445433173866 0.3567831605062629 1:7.0 2:16.0 4:0.0 4:0.0 
0.505554566826134 0.6432168394937371 1:1.0 2:13.0 4:0.0 4:0.0 
-1.0 1.0 1:2.0 2:9.0 3:-1.0 
-1.0 -1.0 1:1.0 2:15.0 4:0.0 3:1.0 
