svm_type c_svc
kernel_type rbf
gamma 0.16666666666666666
nr_class 7
total_sv 900
rho -0.9352460867775954 -0.9807828435099484 -1.003519674310359 -0.5739580884476563 0.07575665090421724 -0.9128584692304411 0.0 0.8864247435058595 0.8740017274525329 0.9111269053294757 1.6195967873500194E-6 0.9673628371925624 0.9637930810285031 0.9744585778432648 0.0015034391544759274 -0.062061877125405604 0.3239946056860387 -0.8551607962308589 1.0 -0.7752716070919399 -0.8360697456299153
label 0 -1 1 -2 2 3 -3
nr_sv 355 1 1 134 93 313 3
SV
0.04251418267100733 0.014246996161158997 0.0 0.28162500804657237 0.710916707755044 0.05785384293937479 1:7.0 2:16.0 4:0.0 4:0.0 
0.09878755104562792 0.0 0.0 0.23250465332433184 0.5832387059568097 0.04341276903892826 1:1.0 2:13.0 4:0.0 4:0.0 
0.0 0.0 0.0 0.0 1.0 0.0 1:5.0 2:14.0 3:0.0 4:0.0 5:0.0 6:0.0 
0.0 0.0 0.0 0.0 1.0 0.0 1:5.0 2:14.0 3:0.0 4:0.0 5:0.0 6:0.0 
0.0 0.0 0.0 0.0 1.0 0.0 1:5.0 2:14.0 3:0.0 4:0.0 5:0.0 6:0.0 
0.0 0.0 0.0 0.0 1.0 0.0 1:5.0 2:14.0 3:0.0 4:0.0 5:0.0 6:0.0 
0.0 0.0 1.0 1.0 1.0 0.0 1:4.0 2:14.0 3:0.0 4:0.0 5:0.0 6:0.0 
0.0 0.0 0.0 0.0 1.0 0.0 1:5.0 2:14.0 3:0.0 4:0.0 5:0.0 6:0.0 
0.0 0.0 0.0 0.0 1.0 0.0 1:5.0 2:14.0 3:0.0 4:0.0 5:0.0 6:0.0 
0.0 0.0 0.0 0.0 1.0 0.0 1:5.0 2:14.0 3:0.0 4:0.0 5:0.0 6:0.0 
0.0 0.0 1.0 1.0 1.0 0.0 1:4.0 2:14.0 3:0.0 4:0.0 5:0.0 6:0.0 
0.0 0.0 1.0 1.0 1.0 0.0 1:4.0 2:14.0 3:0.0 4:0.0 5:0.0 6:0.0 
0.03595709852590959 0.011263769033851252 1.0 1.0 1.0 0.05076473541959063 1:4.0 2:14.0 3:0.0 4:0.0 5:0.0 6:0.0 
0.0 0.0 0.0 0.0 1.0 0.0 1:2.0 2:14.0 
0.0 0.0 0.0 0.0 1.0 0.0 1:2.0 2:14.0 
0.0 0.0 0.0 0.0 1.0 0.0 1:2.0 2:14.0 
0.0 0.0 0.0 1.0 1.0 0.0 1:3.0 2:14.0 
0.0 0.0 0.0 1.0 1.0 0.0 1:3.0 2:14.0 
0.0 0.0 0.6415307524030587 1.0 1.0 0.0 1:3.0 2:14.0 
0.0 0.0 0.0 0.0 1.0 0.0 1:2.0 2:14.0 
0.0 0.0 0.0 1.0 1.0 0.0 1:4.0 2:14.0 3:3.0 4:3.0 5:3.0 6:3.0 
0.0 0.0 0.0 0.0 1.0 0.0 1:2.0 2:14.0 
0.0 0.0 0.0 1.0 1.0 0.0 1:4.0 2:14.0 3:3.0 4:3.0 5:3.0 6:3.0 
0.0 0.0 0.0 0.0 1.0 0.0 1:2.0 2:14.0 
0.0 0.0 0.0 1.0 1.0 0.0 1:4.0 2:14.0 3:3.0 4:3.0 5:3.0 6:3.0 
0.0 0.0 0.0 0.0 1.0 0.0 1:2.0 2:14.0 
0.0 0.0 0.0 1.0 1.0 0.0 1:4.0 2:14.0 3:3.0 4:3.0 5:3.0 6:3.0 
0.0 0.0 0.0 0.0 1.0 0.0 1:2.0 2:14.0 
0.0 0.0 0.0 1.0 1.0 0.0 1:4.0 2:14.0 3:3.0 4:3.0 5:3.0 6:3.0 
0.0 0.0 0.0 0.0 1.0 0.0 1:2.0 2:14.0 
0.0 0.0 0.0 1.0 1.0 0.0 1:4.0 2:14.0 3:3.0 4:3.0 5:3.0 6:3.0 
0.0 0.0 1.0 0.0 0.0 0.0 1:3.0 2:14.0 3:-3.0 4:-3.0 5:-3.0 6:-3.0 
0.0 0.0 0.0 0.0 1.0 0.0 1:2.0 2:14.0 
0.0 0.0 0.0 1.0 1.0 0.0 1:4.0 2:14.0 3:3.0 4:3.0 5:3.0 6:3.0 
0.0 0.0 1.0 0.0 0.0 0.0 1:3.0 2:14.0 3:-3.0 4:-3.0 5:-3.0 6:-3.0 
0.0 0.0 1.0 0.0 0.0 0.0 1:3.0 2:14.0 3:-3.0 4:-3.0 5:-3.0 6:-3.0 
0.0 0.0 0.0 0.0 1.0 0.0 1:2.0 2:14.0 
0.0 0.0 0.0 1.0 1.0 0.0 1:4.0 2:14.0 3:3.0 4:3.0 5:3.0 6:3.0 
0.0 0.0 1.0 0.0 0.0 0.0 1:6.0 2:14.0 3:-3.0 4:-3.0 5:-3.0 6:-3.0 
0.0 0.0 1.0 0.0 0.0 0.0 1:3.0 2:14.0 3:-3.0 4:-3.0 5:-3.0 6:-3.0 
0.0 0.0 1.0 0.0 0.0 0.0 1:6.0 2:14.0 3:-3.0 4:-3.0 5:-3.0 6:-3.0 
0.0 0.0 1.0 0.0 0.0 0.0 1:3.0 2:14.0 3:-3.0 4:-3.0 5:-3.0 6:-3.0 
0.0 0.0 0.0 0.0 1.0 0.0 1:2.0 2:14.0 
0.05281226020239828 0.015548942552181495 0.0 1.0 1.0 0.07123847176522335 1:4.0 2:14.0 3:3.0 4:3.0 5:3.0 6:3.0 
0.0 0.0 1.0 0.0 0.0 0.0 1:6.0 2:14.0 3:-3.0 4:-3.0 5:-3.0 6:-3.0 
0.0 0.0 0.9989294833199853 0.0 0.0 0.11842654773890343 1:3.0 2:14.0 3:-3.0 4:-3.0 5:-3.0 6:-3.0 
0.0 0.0 1.0 0.0 0.0 0.0 1:6.0 2:14.0 3:-3.0 4:-3.0 5:-3.0 6:-3.0 
0.0 0.0 1.0 0.0 0.0 0.0 1:6.0 2:14.0 3:-3.0 4:-3.0 5:-3.0 6:-3.0 
0.038969391894035935 0.011589385675193013 0.0 0.252771968359644 0.7746138458091126 0.05167787541615005 1:5.0 2:14.0 3:-3.0 4:-3.0 
0.0 0.0 0.0 0.0 1.0 0.0 1:5.0 2:14.0 
0.049923652147345766 0.014841301222727171 0.9974667181434107 0.3073493106035506 0.9224122837313027 0.06671767237770927 1:2.0 2:14.0 3:-3.0 3:0.0 4:-3.0 4:3.0 5:3.0 6:3.0 5:-3.0 6:-3.0 
0.0 0.0 0.0 0.0 1.0 0.0 1:5.0 2:14.0 
0.0 0.0 0.0 0.0 1.0 0.0 1:7.0 2:14.0 
0.0 0.0 0.0 0.0 1.0 0.0 1:2.0 2:14.0 
0.0 0.0 0.0 0.0 1.0 0.0 1:5.0 2:14.0 
0.0 0.0 0.0 0.0 1.0 0.0 1:7.0 2:14.0 
0.0 0.0 0.0 0.0 1.0 0.0 1:5.0 2:14.0 
0.0 0.0 0.0 0.0 1.0 0.0 1:5.0 2:14.0 
0.0 0.0 0.0 0.0 1.0 0.0 1:5.0 2:14.0 
0.0 0.0 0.0 0.0 1.0 0.0 1:5.0 2:14.0 
0.0 0.0 0.0 0.0 1.0 0.0 1:7.0 2:14.0 
0.0 0.0 0.0 0.0 1.0 0.0 1:7.0 2:14.0 
0.0 0.0 0.0 0.0 1.0 0.0 1:2.0 2:14.0 
0.0 0.0 0.0 0.0 1.0 0.0 1:5.0 2:14.0 
0.0 0.0 0.0 0.0 1.0 0.0 1:2.0 2:14.0 
0.0 0.0 0.0 0.0 1.0 0.0 1:5.0 2:14.0 
0.0 0.0 0.0 0.0 1.0 0.0 1:2.0 2:14.0 
0.0 0.0 0.0 0.0 1.0 0.0 1:5.0 2:14.0 
0.0 0.0 0.0 0.0 1.0 0.0 1:5.0 2:14.0 
0.0 0.0 0.0 0.0 1.0 0.0 1:5.0 2:14.0 
0.0 0.0 0.0 0.0 1.0 0.0 1:7.0 2:14.0 
0.0 0.0 0.0 0.0 1.0 0.0 1:2.0 2:14.0 
0.0 0.0 0.0 0.0 1.0 0.0 1:5.0 2:14.0 
0.0 0.0 0.0 0.0 1.0 0.0 1:5.0 2:14.0 
0.0 0.0 0.0 0.0 1.0 0.0 1:7.0 2:14.0 
0.0 0.0 0.0 0.0 1.0 0.0 1:7.0 2:14.0 
0.0 0.0 0.0 0.0 1.0 0.0 1:2.0 2:14.0 
0.0 0.0 0.0 0.0 1.0 0.0 1:5.0 2:14.0 
0.0 0.0 0.0 0.0 1.0 0.0 1:7.0 2:14.0 
0.0 0.0 0.0 0.0 1.0 0.0 1:2.0 2:14.0 
0.05229417537737652 0.015673860876363178 0.9973413254570859 0.34365142167385015 0.8678676637512538 0.07014114228427801 1:4.0 2:14.0 3:-3.0 4:-3.0 3:0.0 5:-3.0 6:-3.0 4:3.0 5:3.0 6:3.0 
0.0 0.0 0.0 0.0 1.0 0.0 1:5.0 2:14.0 
0.0 0.0 0.0 0.0 1.0 0.0 1:2.0 2:14.0 
0.0 0.0 0.0 0.0 1.0 0.0 1:5.0 2:14.0 
0.0 0.0 0.0 0.0 1.0 0.0 1:5.0 2:14.0 
0.0 0.0 0.0 0.0 1.0 0.0 1:7.0 2:14.0 3:0.0 4:3.0 5:3.0 6:3.0 
0.0436903352618096 0.015262527740987205 0.0 0.6299645236771483 1.0 0.06677380354271874 1:1.0 2:14.0 3:0.0 4:3.0 
0.0 0.0 0.0 0.322100899469173 1.0 0.0 1:6.0 2:14.0 3:0.0 4:3.0 5:3.0 6:3.0 
0.0 0.0 0.0 0.0 1.0 0.0 1:7.0 2:14.0 
0.0 0.0 0.0 0.307528998782375 1.0 0.0 1:2.0 2:14.0 3:0.0 4:3.0 5:3.0 6:3.0 
0.0 0.0 0.0 0.0 1.0 0.0 1:5.0 2:14.0 
0.05559717111751925 0.016359824975368645 0.0 0.5445252632693538 1.0 0.07364441228847839 1:7.0 2:14.0 3:0.0 4:3.0 5:3.0 6:3.0 
0.06218670931346421 0.018431603281862278 0.0 0.8020409828902352 1.0 0.08385945477273056 1:2.0 2:14.0 3:0.0 3:-3.0 4:-3.0 4:3.0 5:3.0 6:3.0 5:-3.0 6:-3.0 
0.0 0.0 1.0 1.0 1.0 0.0 1:3.0 2:14.0 
0.0 0.0 0.0 0.0 1.0 0.0 1:5.0 2:14.0 
0.0 0.0 0.0 0.0 1.0 0.0 1:4.0 2:14.0 3:0.0 4:3.0 5:3.0 6:3.0 
0.027901726557629337 0.00829305558852655 0.0 0.0 1.0 0.03768938638251421 1:4.0 2:14.0 3:0.0 4:3.0 5:3.0 6:3.0 
0.052669187148066635 0.015905376186149074 0.0 0.5264484467221688 1.0 0.07101033735861063 1:1.0 2:14.0 3:0.0 4:3.0 5:3.0 6:3.0 
0.0 0.0 0.0 0.0 1.0 0.0 1:5.0 2:14.0 
0.0 0.0 0.0 0.0 1.0 0.0 1:7.0 2:14.0 
0.0 0.0 0.0 0.0 1.0 0.0 1:2.0 2:14.0 
0.0 0.0 0.0 0.0 1.0 0.0 1:5.0 2:14.0 
0.0 0.0 0.0 0.0 1.0 0.0 1:5.0 2:14.0 
0.0 0.0 0.0 0.0 1.0 0.0 1:7.0 2:14.0 
0.0 0.0 0.0 0.0 1.0 0.0 1:2.0 2:14.0 
0.0 0.0 0.0 0.0 1.0 0.0 1:5.0 2:14.0 
0.0 0.0 0.0 0.0 0.43876213234157085 0.0 1:6.0 2:14.0 
0.0 0.0 0.0 0.0 1.0 0.0 1:6.0 2:14.0 
0.0 0.0 0.0 0.0 1.0 0.0 1:5.0 2:14.0 
0.0 0.0 0.0 0.0 1.0 0.0 1:6.0 2:14.0 
0.0 0.0 0.0 0.0 1.0 0.0 1:7.0 2:14.0 
0.0 0.0 0.0 0.0 1.0 0.0 1:2.0 2:14.0 
0.0 0.0 0.0 0.0 1.0 0.0 1:5.0 2:14.0 
0.0 0.0 0.0 0.0 1.0 0.0 1:6.0 2:14.0 
0.0 0.0 0.0 0.0 1.0 0.0 1:7.0 2:14.0 
0.0 0.0 0.0 0.0 1.0 0.0 1:1.0 2:14.0 
0.0 0.0 0.0 0.0 1.0 0.0 1:6.0 2:14.0 
0.0 0.0 0.0 0.0 1.0 0.0 1:5.0 2:14.0 
0.0 0.0 0.0 0.0 1.0 0.0 1:6.0 2:14.0 
0.0 0.0 0.0 0.0 1.0 0.0 1:7.0 2:14.0 
0.0 0.0 0.0 0.0 1.0 0.0 1:2.0 2:14.0 
0.0 0.0 0.0 0.0 1.0 0.0 1:5.0 2:14.0 
0.0 0.0 0.0 0.0 1.0 0.0 1:6.0 2:14.0 
0.0 0.0 0.0 0.0 1.0 0.0 1:1.0 2:14.0 
0.0 0.0 0.0 0.0 1.0 0.0 1:7.0 2:14.0 
0.0 0.0 0.0 0.0 1.0 0.0 1:1.0 2:14.0 
0.0 0.0 0.0 0.0 1.0 0.0 1:6.0 2:14.0 
0.0 0.0 0.0 0.0 1.0 0.0 1:5.0 2:14.0 
0.0 0.0 0.0 0.0 1.0 0.0 1:6.0 2:14.0 
0.0 0.0 0.0 0.0 1.0 0.0 1:7.0 2:14.0 
0.0 0.0 0.0 0.0 1.0 0.0 1:2.0 2:14.0 
0.0 0.0 0.0 0.0 1.0 0.0 1:5.0 2:14.0 
0.0 0.0 0.0 0.0 1.0 0.0 1:6.0 2:14.0 
0.0 0.0 0.0 0.0 1.0 0.0 1:1.0 2:14.0 
0.0 0.0 0.0 0.0 1.0 0.0 1:7.0 2:14.0 
0.0 0.0 0.0 0.0 1.0 0.0 1:1.0 2:14.0 
0.0 0.0 0.0 0.0 1.0 0.0 1:6.0 2:14.0 
0.0 0.0 0.0 0.0 1.0 0.0 1:5.0 2:14.0 
0.0 0.0 0.0 0.0 1.0 0.0 1:6.0 2:14.0 
0.0 0.0 0.0 0.0 1.0 0.0 1:7.0 2:14.0 
0.0 0.0 0.0 0.0 1.0 0.0 1:2.0 2:14.0 
0.0 0.0 0.0 0.0 1.0 0.0 1:5.0 2:14.0 
0.0 0.0 0.0 0.0 1.0 0.0 1:6.0 2:14.0 
0.0 0.0 0.0 0.0 1.0 0.0 1:1.0 2:14.0 
0.0 0.0 0.0 0.0 1.0 0.0 1:7.0 2:14.0 
0.0 0.0 0.0 0.0 1.0 0.0 1:1.0 2:14.0 
0.0 0.0 0.0 0.0 1.0 0.0 1:6.0 2:14.0 
0.0 0.0 0.0 0.0 1.0 0.0 1:5.0 2:14.0 
0.0 0.0 0.0 0.0 1.0 0.0 1:6.0 2:14.0 
0.0 0.0 0.0 0.0 1.0 0.0 1:7.0 2:14.0 
0.0 0.0 0.0 0.0 1.0 0.0 1:2.0 2:14.0 
0.0 0.0 0.0 0.0 1.0 0.0 1:5.0 2:14.0 
0.0 0.0 0.0 0.0 1.0 0.0 1:6.0 2:14.0 
0.0 0.0 0.0 0.0 1.0 0.0 1:1.0 2:14.0 
0.0 0.0 0.0 0.0 1.0 0.0 1:7.0 2:14.0 
0.0 0.0 0.0 0.0 1.0 0.0 1:1.0 2:14.0 
0.0 0.0 0.0 0.0 1.0 0.0 1:6.0 2:14.0 
0.0 0.0 0.0 0.0 1.0 0.0 1:5.0 2:14.0 
0.0 0.0 0.0 0.0 1.0 0.0 1:6.0 2:14.0 
0.0 0.0 0.0 0.0 1.0 0.0 1:7.0 2:14.0 
0.0 0.0 0.0 0.0 1.0 0.0 1:2.0 2:14.0 
0.0 0.0 0.0 0.0 1.0 0.0 1:5.0 2:14.0 
0.0 0.0 0.0 0.0 1.0 0.0 1:6.0 2:14.0 
0.0 0.0 0.0 0.0 1.0 0.0 1:1.0 2:14.0 
0.0 0.0 0.0 0.0 1.0 0.0 1:7.0 2:14.0 
0.0 0.0 0.0 0.0 1.0 0.0 1:1.0 2:14.0 
0.0 0.0 0.0 0.0 1.0 0.0 1:6.0 2:14.0 
0.0 0.0 0.0 0.0 1.0 0.0 1:5.0 2:14.0 
0.0 0.0 0.0 0.0 1.0 0.0 1:6.0 2:14.0 
0.0 0.0 0.0 0.0 1.0 0.0 1:7.0 2:14.0 
0.0 0.0 0.0 0.21770514954123854 1.0 0.0 1:2.0 2:14.0 
0.0 0.0 0.0 0.0 1.0 0.0 1:5.0 2:14.0 
0.0 0.0 0.0 0.0 1.0 0.0 1:6.0 2:14.0 
0.0 0.0 0.0 0.0 1.0 0.0 1:1.0 2:14.0 
0.0 0.0 0.0 0.0 1.0 0.0 1:7.0 2:14.0 
0.0 0.0 0.0 0.0 1.0 0.0 1:1.0 2:14.0 
0.0 0.0 0.0 0.0 1.0 0.0 1:6.0 2:14.0 
0.0 0.0 0.0 0.0 1.0 0.0 1:5.0 2:14.0 
0.0 0.0 0.0 0.0 1.0 0.0 1:6.0 2:14.0 
0.0 0.0 0.0 0.0 1.0 0.0 1:7.0 2:14.0 
0.0 0.0 1.0 1.0 1.0 0.0 1:2.0 2:14.0 
0.0 0.0 0.0 0.42702018274436704 1.0 0.0 1:5.0 2:14.0 
0.0 0.0 0.0 0.0 1.0 0.0 1:6.0 2:14.0 
0.0 0.0 0.0 0.0 1.0 0.0 1:1.0 2:14.0 
0.0 0.0 0.0 0.0 1.0 0.0 1:7.0 2:14.0 
0.0 0.0 0.0 0.0 1.0 0.0 1:1.0 2:14.0 
0.0 0.0 0.0 0.0 1.0 0.0 1:6.0 2:14.0 
0.0 0.0 0.0 1.0 1.0 0.0 1:5.0 2:14.0 
0.0 0.0 0.0 0.0 1.0 0.0 1:6.0 2:14.0 
0.0 0.0 0.0 0.0 1.0 0.0 1:7.0 2:14.0 
0.0 0.0 1.0 1.0 1.0 0.0 1:2.0 2:14.0 
0.0 0.0 0.0 1.0 1.0 0.0 1:5.0 2:14.0 
0.0 0.0 0.0 0.0 1.0 0.0 1:6.0 2:14.0 
0.0 0.0 0.0 0.0 1.0 0.0 1:1.0 2:14.0 
0.0 0.0 0.0 0.0 1.0 0.0 1:7.0 2:14.0 
0.0 0.0 0.0 0.0 1.0 0.0 1:1.0 2:14.0 
0.0 0.0 0.0 0.0 1.0 0.0 1:6.0 2:14.0 
0.0 0.0 0.0 1.0 1.0 0.0 1:5.0 2:14.0 
0.0 0.0 0.0 0.0 1.0 0.0 1:6.0 2:14.0 
0.0 0.0 0.0 0.0 1.0 0.0 1:7.0 2:14.0 
0.0 0.0 1.0 1.0 1.0 0.0 1:2.0 2:14.0 
0.0 0.0 0.0 1.0 1.0 0.0 1:5.0 2:14.0 
0.0 0.0 0.0 0.0 1.0 0.0 1:6.0 2:14.0 
0.0 0.0 0.0 0.0 1.0 0.0 1:1.0 2:14.0 
0.0 0.0 0.0 0.0 1.0 0.0 1:7.0 2:14.0 
0.0 0.0 1.0 0.0 0.0 0.0 1:6.0 2:14.0 3:-3.0 4:-3.0 5:-3.0 6:-3.0 
0.0 0.0 0.0 0.0 1.0 0.0 1:1.0 2:14.0 
0.0 0.0 0.0 0.0 1.0 0.0 1:6.0 2:14.0 
0.0 0.0 0.0 1.0 1.0 0.0 1:5.0 2:14.0 
0.0 0.0 0.0 0.0 1.0 0.0 1:6.0 2:14.0 
0.0 0.0 0.0 0.0 1.0 0.0 1:7.0 2:14.0 
0.0 0.0 1.0 1.0 1.0 0.0 1:2.0 2:14.0 
0.0 0.0 0.0 1.0 1.0 0.0 1:5.0 2:14.0 
0.0 0.0 0.0 0.0 1.0 0.0 1:6.0 2:14.0 
0.0 0.0 0.0 0.0 1.0 0.0 1:1.0 2:14.0 
0.0 0.0 0.0 0.0 1.0 0.0 1:7.0 2:14.0 
0.0 0.0 0.0 0.0 0.879906376721802 0.0 1:7.0 2:14.0 3:-3.0 4:-3.0 5:-3.0 6:-3.0 
0.0 0.0 1.0 0.0 0.0 0.0 1:6.0 2:14.0 3:-3.0 4:-3.0 5:-3.0 6:-3.0 
0.0 0.0 0.9999993965633113 0.0 0.0 0.0 1:2.0 2:14.0 3:-3.0 3:3.0 4:-3.0 4:3.0 5:3.0 6:3.0 5:-3.0 6:-3.0 
0.0 0.0 0.0 0.0 1.0 0.0 1:1.0 2:14.0 
0.0 0.0 0.0 0.0 1.0 0.0 1:6.0 2:14.0 
0.0 0.0 0.0 0.0 1.0 0.0 1:7.0 2:14.0 3:-3.0 4:-3.0 5:-3.0 6:-3.0 
0.0 0.0 1.0 1.0 1.0 0.0 1:5.0 2:14.0 
0.0 0.0 0.0 0.0 1.0 0.0 1:6.0 2:14.0 
0.0 0.0 0.0 0.0 1.0 0.0 1:7.0 2:14.0 
0.0 0.0 1.0 1.0 1.0 0.0 1:2.0 2:14.0 
0.0 0.0 1.0 1.0 1.0 0.0 1:5.0 2:14.0 
0.0 0.0 0.0 0.0 1.0 0.0 1:6.0 2:14.0 
0.0 0.0 0.0 0.0 1.0 0.0 1:7.0 2:14.0 3:-3.0 4:-3.0 5:-3.0 6:-3.0 
0.0 0.0 0.0 0.0 1.0 0.0 1:7.0 2:14.0 3:-3.0 4:-3.0 5:-3.0 6:-3.0 
0.0 0.0 0.0 0.0 1.0 0.0 1:1.0 2:14.0 
0.0 0.0 0.0 0.0 1.0 0.0 1:7.0 2:14.0 
0.0 0.0 0.0 0.0 1.0 0.0 1:7.0 2:14.0 3:-3.0 4:-3.0 5:-3.0 6:-3.0 
0.0 0.0 1.0 0.0 0.0 0.0 1:6.0 2:14.0 3:-3.0 4:-3.0 5:-3.0 6:-3.0 
0.0 0.0 0.0 0.0 1.0 0.0 1:7.0 2:14.0 3:-3.0 4:-3.0 5:-3.0 6:-3.0 
0.0 0.0 1.0 0.0 0.0 0.0 1:2.0 2:14.0 3:-3.0 3:3.0 4:-3.0 4:3.0 5:3.0 6:3.0 5:-3.0 6:-3.0 
0.0 0.0 1.0 0.0 0.0 0.0 1:7.0 2:14.0 3:-3.0 4:-3.0 
0.0 0.0 0.0 0.0 1.0 0.0 1:1.0 2:14.0 
0.0 0.0 0.007956211480865127 0.0 1.0 0.0 1:6.0 2:14.0 
0.0 0.0 0.0 0.0 1.0 0.0 1:7.0 2:14.0 3:-3.0 4:-3.0 5:-3.0 6:-3.0 
0.0 0.0 1.0 1.0 1.0 0.0 1:5.0 2:14.0 
0.0 0.0 1.0 0.0 1.0 0.0 1:6.0 2:14.0 
0.0 0.0 0.0 0.4399305608997725 1.0 0.0 1:7.0 2:14.0 
0.0 0.0 1.0 1.0 1.0 0.0 1:2.0 2:14.0 
0.0 0.0 1.0 1.0 1.0 0.0 1:5.0 2:14.0 
0.0 0.0 1.0 0.0 1.0 0.0 1:6.0 2:14.0 
0.0 0.0 0.0 0.0 1.0 0.0 1:7.0 2:14.0 3:-3.0 4:-3.0 5:-3.0 6:-3.0 
0.0 0.0 1.0 0.0 0.0 0.0 1:2.0 2:14.0 3:-3.0 3:3.0 4:-3.0 4:3.0 5:3.0 6:3.0 5:-3.0 6:-3.0 
0.0 0.0 0.0 0.0 1.0 0.0 1:7.0 2:14.0 3:-3.0 4:-3.0 5:-3.0 6:-3.0 
0.0 0.0 1.0 0.0 0.0 0.0 1:7.0 2:14.0 3:-3.0 4:-3.0 
0.0 0.0 0.0 0.0 1.0 0.0 1:1.0 2:14.0 
0.0 0.0 0.2629829322092827 0.0 0.7856906953661251 0.0 1:1.0 2:14.0 
0.0 0.0 0.0 1.0 1.0 0.0 1:7.0 2:14.0 
0.0 0.0 1.0 0.0 1.0 0.0 1:6.0 2:14.0 
0.0 0.0 1.0 0.0 1.0 0.0 1:7.0 2:14.0 3:-3.0 4:-3.0 5:-3.0 6:-3.0 
0.0 0.0 1.0 0.0 1.0 0.0 1:7.0 2:14.0 3:-3.0 4:-3.0 5:-3.0 6:-3.0 
0.0 0.0 1.0 1.0 1.0 0.0 1:5.0 2:14.0 
0.0 0.0 1.0 0.0 1.0 0.0 1:6.0 2:14.0 
0.0 0.0 0.0 1.0 0.08855155684282112 0.0 1:7.0 2:14.0 
0.0 0.0 1.0 0.0 0.0 0.0 1:6.0 2:14.0 3:-3.0 4:-3.0 5:-3.0 6:-3.0 
0.0 0.0 1.0 0.0 0.0 0.0 1:1.0 2:14.0 3:-3.0 4:-3.0 5:-3.0 6:-3.0 
0.0 0.0 1.0 1.0 1.0 0.0 1:2.0 2:14.0 
0.0 0.0 1.0 0.0 1.0 0.0 1:7.0 2:14.0 3:-3.0 4:-3.0 5:-3.0 6:-3.0 
0.0 0.0 1.0 0.0 0.0 0.0 1:1.0 2:14.0 3:-3.0 4:-3.0 5:-3.0 6:-3.0 
0.0 0.0 1.0 0.0 0.0 0.0 1:4.0 2:14.0 3:-3.0 4:-3.0 3:3.0 5:-3.0 6:-3.0 4:3.0 5:3.0 6:3.0 
0.0 0.0 1.0 1.0 1.0 0.0 1:5.0 2:14.0 
0.0 0.0 1.0 0.0 1.0 0.0 1:6.0 2:14.0 
0.0 0.0 1.0 0.0 1.0 0.0 1:7.0 2:14.0 3:-3.0 4:-3.0 5:-3.0 6:-3.0 
0.0 0.0 1.0 0.0 0.0 0.0 1:5.0 2:14.0 3:-3.0 4:-3.0 5:-3.0 6:-3.0 
0.0 0.0 1.0 0.0 1.0 0.0 1:7.0 2:14.0 3:-3.0 4:-3.0 5:-3.0 6:-3.0 
0.0 0.0 1.0 1.0 0.0 0.0 1:1.0 2:14.0 
0.0 0.0 0.0 1.0 0.0 0.0 1:7.0 2:14.0 
0.0 0.0 1.0 0.0 0.0 0.0 1:5.0 2:14.0 3:-3.0 4:-3.0 5:-3.0 6:-3.0 
0.0 0.0 1.0 0.0 0.0 0.0 1:1.0 2:14.0 3:-3.0 4:-3.0 5:-3.0 6:-3.0 
0.0 0.0 1.0 0.0 1.0 0.0 1:7.0 2:14.0 3:-3.0 4:-3.0 5:-3.0 6:-3.0 
0.0 0.0 1.0 0.0 0.0 0.0 1:5.0 2:14.0 3:-3.0 4:-3.0 5:-3.0 6:-3.0 
0.0 0.0 1.0 0.0 0.0 0.0 1:6.0 2:14.0 3:-3.0 4:-3.0 5:-3.0 6:-3.0 
0.0 0.0 1.0 0.0 1.0 0.0 1:7.0 2:14.0 3:-3.0 4:-3.0 5:-3.0 6:-3.0 
0.0 0.0 1.0 0.0 0.0 0.0 1:1.0 2:14.0 3:-3.0 4:-3.0 5:-3.0 6:-3.0 
0.0 0.0 1.0 0.0 0.0 0.0 1:2.0 2:14.0 3:-3.0 3:3.0 4:-3.0 4:3.0 5:3.0 6:3.0 5:-3.0 6:-3.0 
0.0 0.0 1.0 0.0 0.0 0.0 1:1.0 2:14.0 3:-3.0 4:-3.0 5:-3.0 6:-3.0 
0.0 0.0 1.0 0.0 0.0 0.0 1:5.0 2:14.0 3:-3.0 4:-3.0 5:-3.0 6:-3.0 
0.0 0.0 1.0 0.0 0.0 0.0 1:7.0 2:14.0 3:-3.0 4:-3.0 
0.0 0.0 1.0 1.0 0.0 0.0 1:1.0 2:14.0 
0.0 0.0 1.0 0.0 1.0 0.0 1:6.0 2:14.0 
0.0 0.0 1.0 0.0 1.0 0.0 1:7.0 2:14.0 3:-3.0 4:-3.0 5:-3.0 6:-3.0 
0.0 0.0 1.0 0.0 0.0 0.0 1:1.0 2:14.0 3:-3.0 4:-3.0 5:-3.0 6:-3.0 
0.0 0.0 1.0 1.0 1.0 0.0 1:5.0 2:14.0 
0.0 0.0 1.0 1.0 1.0 0.0 1:6.0 2:14.0 
0.0 0.0 0.0 1.0 0.0 0.0 1:7.0 2:14.0 
0.0 0.0 1.0 0.0 0.0 0.0 1:1.0 2:14.0 3:-3.0 4:-3.0 5:-3.0 6:-3.0 
0.0 0.0 1.0 1.0 1.0 0.0 1:2.0 2:14.0 
0.0 0.0 1.0 0.0 0.0 0.0 1:4.0 2:14.0 3:-3.0 4:-3.0 3:3.0 5:-3.0 6:-3.0 4:3.0 5:3.0 6:3.0 
0.0 0.0 1.0 1.0 1.0 0.0 1:5.0 2:14.0 
0.0 0.0 1.0 1.0 1.0 0.0 1:6.0 2:14.0 
0.0 0.0 1.0 0.0 1.0 0.0 1:7.0 2:14.0 3:-3.0 4:-3.0 5:-3.0 6:-3.0 
0.0 0.0 1.0 0.0 0.0 0.0 1:5.0 2:14.0 3:-3.0 4:-3.0 5:-3.0 6:-3.0 
0.0 0.0 1.0 0.0 1.0 0.0 1:7.0 2:14.0 3:-3.0 4:-3.0 5:-3.0 6:-3.0 
0.0 0.0 1.0 1.0 0.0 0.0 1:1.0 2:14.0 
0.0 0.0 0.3779341983717205 1.0 0.0 0.0 1:7.0 2:14.0 
0.0 0.0 1.0 0.0 0.0 0.0 1:5.0 2:14.0 3:-3.0 4:-3.0 5:-3.0 6:-3.0 
0.0 0.0 1.0 0.0 0.0 0.0 1:1.0 2:14.0 3:-3.0 4:-3.0 5:-3.0 6:-3.0 
0.0 0.0 1.0 0.0 1.0 0.0 1:7.0 2:14.0 3:-3.0 4:-3.0 5:-3.0 6:-3.0 
0.0 0.0 1.0 0.0 0.0 0.0 1:5.0 2:14.0 3:-3.0 4:-3.0 5:-3.0 6:-3.0 
0.0 0.0 1.0 0.0 0.0 0.0 1:6.0 2:14.0 3:-3.0 4:-3.0 5:-3.0 6:-3.0 
0.0 0.0 1.0 0.0 1.0 0.0 1:7.0 2:14.0 3:-3.0 4:-3.0 5:-3.0 6:-3.0 
0.0 0.0 1.0 0.0 0.0 0.0 1:1.0 2:14.0 3:-3.0 4:-3.0 5:-3.0 6:-3.0 
0.0 0.0 1.0 1.0 0.0 0.0 1:7.0 2:14.0 
0.0 0.0 1.0 0.0 0.0 0.0 1:2.0 2:14.0 3:-3.0 3:3.0 4:-3.0 4:3.0 5:3.0 6:3.0 5:-3.0 6:-3.0 
0.0 0.0 1.0 0.0 0.0 0.0 1:1.0 2:14.0 3:-3.0 4:-3.0 5:-3.0 6:-3.0 
0.0 0.0 1.0 0.0 0.0 0.0 1:5.0 2:14.0 3:-3.0 4:-3.0 5:-3.0 6:-3.0 
0.0 0.0 1.0 0.0 0.0 0.0 1:7.0 2:14.0 3:-3.0 4:-3.0 
0.0 0.0 1.0 1.0 0.0 0.0 1:1.0 2:14.0 
0.0 0.0 1.0 1.0 1.0 0.0 1:6.0 2:14.0 
0.0 0.0 1.0 0.0 1.0 0.0 1:7.0 2:14.0 3:-3.0 4:-3.0 5:-3.0 6:-3.0 
0.0 0.0 1.0 0.0 0.0 0.0 1:1.0 2:14.0 3:-3.0 4:-3.0 5:-3.0 6:-3.0 
0.0 0.0 1.0 1.0 1.0 0.0 1:5.0 2:14.0 
0.0 0.0 1.0 1.0 1.0 0.0 1:6.0 2:14.0 
0.0 0.0 1.0 1.0 0.0 0.0 1:7.0 2:14.0 
0.0 0.0 1.0 0.0 0.0 0.0 1:1.0 2:14.0 3:-3.0 4:-3.0 5:-3.0 6:-3.0 
0.0 0.0 1.0 1.0 1.0 0.0 1:2.0 2:14.0 
0.05273822317145076 0.01576741361254205 0.9970355904191316 0.3484969638028332 0.879792220627067 0.07119902454926944 1:4.0 2:14.0 3:-3.0 4:-3.0 3:3.0 5:-3.0 6:-3.0 4:3.0 5:3.0 6:3.0 
0.0 0.0 1.0 1.0 1.0 0.0 1:5.0 2:14.0 
0.0 0.0 1.0 0.12521192500880649 1.0 0.0 1:6.0 2:14.0 
0.0 0.0 1.0 0.0 1.0 0.0 1:7.0 2:14.0 3:-3.0 4:-3.0 5:-3.0 6:-3.0 
0.0 0.0 1.0 0.0 0.0 0.0 1:5.0 2:14.0 3:-3.0 4:-3.0 5:-3.0 6:-3.0 
0.0 0.0 1.0 0.48434630534044615 1.0 0.0 1:7.0 2:14.0 3:-3.0 4:-3.0 5:-3.0 6:-3.0 
0.0 0.0 1.0 0.5956597698432708 0.0 0.0 1:1.0 2:14.0 
0.0 0.0 1.0 1.0 0.0 0.0 1:7.0 2:14.0 
0.0 0.0 1.0 0.0 0.0 0.0 1:5.0 2:14.0 3:-3.0 4:-3.0 5:-3.0 6:-3.0 
0.0 0.0 1.0 0.0 0.0 0.0 1:1.0 2:14.0 3:-3.0 4:-3.0 5:-3.0 6:-3.0 
0.0 0.0 1.0 0.0 0.0 0.51341712474823 1:2.0 2:14.0 3:-3.0 4:-3.0 5:-3.0 6:-3.0 
0.037476101446917605 0.011358947137080046 0.0 0.24715914277121212 0.6272803604916737 0.005707616806918958 1:4.0 2:14.0 3:-3.0 4:-3.0 5:-3.0 6:-3.0 
0.0 0.0 1.0 1.0 1.0 0.0 1:7.0 2:14.0 3:-3.0 4:-3.0 5:-3.0 6:-3.0 
0.0 0.0 1.0 0.0 0.0 0.0 1:5.0 2:14.0 3:-3.0 4:-3.0 5:-3.0 6:-3.0 
0.0 0.0 1.0 0.0 0.0 0.0 1:6.0 2:14.0 3:-3.0 4:-3.0 5:-3.0 6:-3.0 
0.0 0.0 1.0 1.0 1.0 0.0 1:7.0 2:14.0 3:-3.0 4:-3.0 5:-3.0 6:-3.0 
0.0 0.0 1.0 0.0 0.0 0.0 1:1.0 2:14.0 3:-3.0 4:-3.0 5:-3.0 6:-3.0 
0.0 0.0 1.0 0.0 0.0 0.7150261192794961 1:2.0 2:14.0 3:-3.0 4:-3.0 5:-3.0 6:-3.0 
0.0 0.0 1.0 1.0 0.0 0.0 1:7.0 2:14.0 
0.0 0.0 1.0 0.0 0.0 0.0 1:5.0 2:14.0 3:-3.0 4:-3.0 5:-3.0 6:-3.0 
0.05311185423769654 0.01578374638229005 0.9972208102241006 0.3574987941188943 0.870116408538245 0.07183384630375377 1:2.0 2:14.0 3:-3.0 3:3.0 4:-3.0 4:3.0 5:3.0 6:3.0 5:-3.0 6:-3.0 
0.0 0.0 1.0 0.0 0.0 0.0 1:1.0 2:14.0 3:-3.0 4:-3.0 5:-3.0 6:-3.0 
0.0 0.0 0.9982689386701074 0.0 0.0 0.0 1:5.0 2:14.0 3:-3.0 4:-3.0 5:-3.0 6:-3.0 
0.038593454897129766 0.01103027307359825 0.9967105345542882 0.25643933853112544 0.5755731508990152 0.052428421805130576 1:7.0 2:14.0 3:-3.0 4:-3.0 
0.0 0.7291878162512712 1.0 0.20864423458762685 0.0 0.022779133382731753 1:1.0 2:14.0 
0.0 0.0 1.0 0.0 1.0 0.0 1:6.0 2:14.0 
0.053058262367654624 0.015398986349670527 0.9974243396453655 0.8644785932586676 1.0 0.07509688641431818 1:7.0 2:14.0 3:-3.0 4:-3.0 5:-3.0 6:-3.0 
0.0 0.0 1.0 0.0 0.0 0.0 1:1.0 2:14.0 3:-3.0 4:-3.0 5:-3.0 6:-3.0 
0.0 0.0 0.7164643425744329 1.0 1.0 0.0 1:5.0 2:14.0 
0.0 0.0 1.0 0.0 1.0 0.0 1:6.0 2:14.0 
0.030975503235495448 0.008038222769804124 0.9230922986337496 1.0 0.0 0.04096139966099819 1:7.0 2:14.0 
0.055603896176794135 0.016698971548482825 0.9968544923794093 0.36603076815865815 0.9239960256702531 0.1397695759780655 1:1.0 2:14.0 3:-3.0 4:-3.0 5:-3.0 6:-3.0 
0.0 0.0 0.09278763495069468 0.7608046628142594 1.0 0.0 1:2.0 2:14.0 
0.06513926320467078 0.019318979580891994 0.0 0.4263614067310873 1.0 0.08728217511658637 
-1.0 1.0 1.0 1.0 1.0 1.0 1:2.0 2:9.0 3:-1.0 
-1.0 -1.0 1.0 1.0 1.0 1.0 1:1.0 2:15.0 4:0.0 3:1.0 
-1.0 -0.0 -0.0 0.0 0.0 0.0 1:6.0 2:14.0 3:-3.0 4:-3.0 5:-3.0 6:-3.0 
-1.0 -0.0 -0.0 0.0 0.0 0.0 1:6.0 2:14.0 3:-3.0 4:-3.0 5:-3.0 6:-3.0 
-1.0 -0.0 -0.0 0.0 0.0 0.0 1:6.0 2:14.0 3:-3.0 4:-3.0 5:-3.0 6:-3.0 
-1.0 -0.0 -0.0 0.0 0.0 0.0 1:6.0 2:14.0 3:-3.0 4:-3.0 5:-3.0 6:-3.0 
-1.0 -0.0 -0.0 0.0 1.0 0.0 1:7.0 2:14.0 3:-3.0 4:-3.0 5:-3.0 6:-3.0 
-1.0 -0.0 -0.0 0.0 0.0 0.0 1:6.0 2:14.0 3:-3.0 4:-3.0 5:-3.0 6:-3.0 
-1.0 -0.0 -0.0 0.0 1.0 0.0 1:7.0 2:14.0 3:-3.0 4:-3.0 5:-3.0 6:-3.0 
-1.0 -0.0 -0.0 0.0 0.6163169809935469 0.0 1:6.0 2:14.0 3:-3.0 4:-3.0 5:-3.0 6:-3.0 
-1.0 -0.0 -0.0 0.0 1.0 0.0 1:6.0 2:14.0 3:-3.0 4:-3.0 5:-3.0 6:-3.0 
-1.0 -0.0 -0.0 0.0 1.0 0.0 1:6.0 2:14.0 3:-3.0 4:-3.0 5:-3.0 6:-3.0 
-1.0 -0.0 -0.0 0.0 1.0 0.0 1:7.0 2:14.0 3:-3.0 4:-3.0 5:-3.0 6:-3.0 
-1.0 -0.0 -0.0 0.0 1.0 0.0 1:7.0 2:14.0 3:-3.0 4:-3.0 5:-3.0 6:-3.0 
-1.0 -0.0 -0.0 0.0 1.0 0.0 1:7.0 2:14.0 3:-3.0 4:-3.0 5:-3.0 6:-3.0 
-1.0 -0.0 -0.0 0.0 0.0 0.0 1:3.0 2:14.0 3:-3.0 4:-3.0 5:-3.0 6:-3.0 
-1.0 -0.0 -0.0 0.0 0.0 0.0 1:3.0 2:14.0 3:-3.0 4:-3.0 5:-3.0 6:-3.0 
-1.0 -0.0 -0.0 0.0 0.0 0.0 1:3.0 2:14.0 3:-3.0 4:-3.0 5:-3.0 6:-3.0 
-1.0 -0.0 -0.0 1.0 1.0 0.0 1:2.0 2:14.0 
-1.0 -0.0 -0.0 1.0 1.0 0.0 1:2.0 2:14.0 
-1.0 -0.0 -0.0 1.0 1.0 0.0 1:2.0 2:14.0 
-1.0 -0.0 -0.0 0.0 0.0 0.0 1:5.0 2:14.0 3:-3.0 4:-3.0 5:-3.0 6:-3.0 
-1.0 -0.0 -0.0 0.0 0.0 0.0 1:5.0 2:14.0 3:-3.0 4:-3.0 5:-3.0 6:-3.0 
-1.0 -0.0 -0.0 0.0 0.0 0.0 1:5.0 2:14.0 3:-3.0 4:-3.0 5:-3.0 6:-3.0 
-1.0 -0.0 -0.0 1.0 1.0 0.0 1:4.0 2:14.0 3:0.0 4:0.0 5:0.0 6:0.0 
-1.0 -0.0 -0.0 1.0 1.0 0.0 1:4.0 2:14.0 3:0.0 4:0.0 5:0.0 6:0.0 
-1.0 -0.0 -0.0 1.0 1.0 0.0 1:4.0 2:14.0 3:0.0 4:0.0 5:0.0 6:0.0 
-1.0 -0.0 -0.0 0.0 1.0 0.0 1:6.0 2:14.0 3:-3.0 4:-3.0 5:-3.0 6:-3.0 
-1.0 -0.0 -0.0 0.0 1.0 0.0 1:7.0 2:14.0 3:-3.0 4:-3.0 5:-3.0 6:-3.0 
-1.0 -0.0 -0.0 0.0 0.0 0.0 1:3.0 2:14.0 3:-3.0 4:-3.0 5:-3.0 6:-3.0 
-1.0 -0.0 -0.0 1.0 1.0 0.0 1:2.0 2:14.0 
-1.0 -0.0 -0.0 0.0 0.0 0.0 1:5.0 2:14.0 3:-3.0 4:-3.0 5:-3.0 6:-3.0 
-1.0 -0.0 -0.0 1.0 1.0 0.0 1:4.0 2:14.0 3:0.0 4:0.0 5:0.0 6:0.0 
-1.0 -0.0 -0.0 0.0 0.0 0.0 1:1.0 2:14.0 3:-3.0 4:-3.0 5:-3.0 6:-3.0 
-1.0 -0.0 -0.0 0.0 1.0 0.0 1:6.0 2:14.0 3:-3.0 4:-3.0 5:-3.0 6:-3.0 
-1.0 -0.0 -0.0 0.0 1.0 0.0 1:7.0 2:14.0 3:-3.0 4:-3.0 5:-3.0 6:-3.0 
-1.0 -0.0 -0.0 0.0 0.0 0.0 1:3.0 2:14.0 3:-3.0 4:-3.0 5:-3.0 6:-3.0 
-1.0 -0.0 -0.0 1.0 1.0 0.0 1:2.0 2:14.0 
-1.0 -0.0 -0.0 0.0 0.0 0.0 1:5.0 2:14.0 3:-3.0 4:-3.0 5:-3.0 6:-3.0 
-1.0 -0.0 -0.0 1.0 1.0 0.0 1:4.0 2:14.0 3:0.0 4:0.0 5:0.0 6:0.0 
-1.0 -0.0 -0.0 0.0 0.0 0.0 1:1.0 2:14.0 3:-3.0 4:-3.0 5:-3.0 6:-3.0 
-1.0 -0.0 -0.0 0.0 1.0 0.0 1:6.0 2:14.0 3:-3.0 4:-3.0 5:-3.0 6:-3.0 
-1.0 -0.0 -0.0 0.0 1.0 0.0 1:7.0 2:14.0 3:-3.0 4:-3.0 5:-3.0 6:-3.0 
-1.0 -0.039347640808298355 -0.010024795666509479 0.3332818688065288 0.0 0.22982057947007217 1:3.0 2:14.0 3:-3.0 4:-3.0 5:-3.0 6:-3.0 
-1.0 -0.0 -0.0 1.0 1.0 0.0 1:2.0 2:14.0 
-1.0 -0.0 -0.0 0.0 0.0 0.0 1:5.0 2:14.0 3:-3.0 4:-3.0 5:-3.0 6:-3.0 
-1.0 -0.07435502615670647 -0.020618515731630763 1.0 1.0 0.08877443567027199 1:4.0 2:14.0 3:0.0 4:0.0 5:0.0 6:0.0 
-1.0 -0.0 -0.0 0.0 0.0 0.0 1:1.0 2:14.0 3:-3.0 4:-3.0 5:-3.0 6:-3.0 
-1.0 -0.0 -0.0 0.0 1.0 0.0 1:6.0 2:14.0 3:-3.0 4:-3.0 5:-3.0 6:-3.0 
-1.0 -0.0 -0.0 0.0 0.0 0.0 1:2.0 2:14.0 3:-3.0 3:3.0 4:-3.0 4:3.0 5:3.0 6:3.0 5:-3.0 6:-3.0 
-1.0 -0.0 -0.0 0.0 0.0 0.0 1:2.0 2:14.0 3:-3.0 3:3.0 4:-3.0 4:3.0 5:3.0 6:3.0 5:-3.0 6:-3.0 
-1.0 -0.0 -0.0 0.0 0.0 0.0 1:2.0 2:14.0 3:-3.0 3:3.0 4:-3.0 4:3.0 5:3.0 6:3.0 5:-3.0 6:-3.0 
-1.0 -0.0 -0.0 0.0 0.0 0.0 1:1.0 2:14.0 3:-3.0 4:-3.0 5:-3.0 6:-3.0 
-1.0 -0.0 -0.0 0.0 0.0 0.0 1:5.0 2:14.0 3:-3.0 4:-3.0 5:-3.0 6:-3.0 
-1.0 -0.0 -0.0 0.0 0.0 0.0 1:7.0 2:14.0 3:-3.0 4:-3.0 
-1.0 -0.0 -0.0 1.0 1.0 0.0 1:1.0 2:14.0 
-1.0 -0.0 -0.0 1.0 1.0 0.0 1:6.0 2:14.0 
-1.0 -0.0 -0.0 0.0 1.0 0.0 1:7.0 2:14.0 3:-3.0 4:-3.0 5:-3.0 6:-3.0 
-1.0 -0.0 -0.0 0.0 0.0 0.0 1:1.0 2:14.0 3:-3.0 4:-3.0 5:-3.0 6:-3.0 
-1.0 -0.0 -0.0 1.0 1.0 0.0 1:5.0 2:14.0 
-1.0 -0.0 -0.0 1.0 1.0 0.0 1:6.0 2:14.0 
-1.0 -0.0 -0.0 0.0 0.0 0.0 1:2.0 2:14.0 3:-3.0 3:3.0 4:-3.0 4:3.0 5:3.0 6:3.0 5:-3.0 6:-3.0 
-1.0 -0.0 -0.0 0.0 0.0 0.0 1:1.0 2:14.0 3:-3.0 4:-3.0 5:-3.0 6:-3.0 
-1.0 -0.0 -0.0 0.0 0.0 0.0 1:5.0 2:14.0 3:-3.0 4:-3.0 5:-3.0 6:-3.0 
-1.0 -0.0 -0.0 0.0 0.0 0.0 1:7.0 2:14.0 3:-3.0 4:-3.0 
-1.0 -0.0 -0.0 1.0 1.0 0.0 1:1.0 2:14.0 
-1.0 -0.0 -0.0 1.0 1.0 0.0 1:6.0 2:14.0 
-1.0 -0.0 -0.0 0.0 1.0 0.0 1:7.0 2:14.0 3:-3.0 4:-3.0 5:-3.0 6:-3.0 
-1.0 -0.0 -0.0 0.0 0.0 0.0 1:1.0 2:14.0 3:-3.0 4:-3.0 5:-3.0 6:-3.0 
-1.0 -0.0 -0.0 1.0 1.0 0.0 1:5.0 2:14.0 
-1.0 -0.0 -0.0 1.0 1.0 0.0 1:6.0 2:14.0 
-1.0 -0.0 -0.0 1.0 1.0 0.0 1:7.0 2:14.0 
-1.0 -0.0 -0.0 0.0 0.0 0.0 1:1.0 2:14.0 3:-3.0 4:-3.0 5:-3.0 6:-3.0 
-1.0 -0.0 -0.0 1.0 1.0 0.0 1:2.0 2:14.0 
-1.0 -0.0 -0.0 0.0 0.0 0.0 1:4.0 2:14.0 3:-3.0 4:-3.0 3:3.0 5:-3.0 6:-3.0 4:3.0 5:3.0 6:3.0 
-1.0 -0.0 -0.0 1.0 1.0 0.0 1:5.0 2:14.0 
-1.0 -0.0 -0.0 1.0 1.0 0.0 1:6.0 2:14.0 
-1.0 -0.0 -0.0 0.0 1.0 0.0 1:7.0 2:14.0 3:-3.0 4:-3.0 5:-3.0 6:-3.0 
-1.0 -0.09270753815395882 -0.026718119874436355 0.7674401691963638 1.0 0.11860991530143217 1:2.0 2:14.0 3:-3.0 3:0.0 4:-3.0 4:3.0 5:3.0 6:3.0 5:-3.0 6:-3.0 
-1.0 -0.0 -0.0 0.0 0.0 0.0 1:1.0 2:14.0 3:-3.0 4:-3.0 5:-3.0 6:-3.0 
-1.0 -0.0 -0.0 0.0 0.0 0.0 1:5.0 2:14.0 3:-3.0 4:-3.0 5:-3.0 6:-3.0 
-1.0 -0.0 -0.0 0.0 0.0 0.0 1:7.0 2:14.0 3:-3.0 4:-3.0 
-1.0 -0.0 -0.0 1.0 1.0 0.0 1:1.0 2:14.0 
-1.0 -0.0 -0.0 1.0 1.0 0.0 1:6.0 2:14.0 
-1.0 -0.0 -0.0 0.0 1.0 0.0 1:7.0 2:14.0 3:-3.0 4:-3.0 5:-3.0 6:-3.0 
-1.0 -0.0 -0.0 0.0 0.0 0.0 1:1.0 2:14.0 3:-3.0 4:-3.0 5:-3.0 6:-3.0 
-1.0 -0.0 -0.0 1.0 1.0 0.0 1:5.0 2:14.0 
-1.0 -0.0 -0.0 1.0 1.0 0.0 1:6.0 2:14.0 
-1.0 -0.0 -0.0 1.0 1.0 0.0 1:7.0 2:14.0 
-1.0 -0.0 -0.0 0.0 0.0 0.0 1:1.0 2:14.0 3:-3.0 4:-3.0 5:-3.0 6:-3.0 
-1.0 -0.0 -0.0 1.0 1.0 0.0 1:2.0 2:14.0 
-1.0 -0.09161079808327488 -0.025967335882379414 0.7568876258849648 1.0 0.11690016446384643 1:4.0 2:14.0 3:-3.0 4:-3.0 3:0.0 5:-3.0 6:-3.0 4:3.0 5:3.0 6:3.0 
-1.0 -0.0 -0.0 1.0 1.0 0.0 1:5.0 2:14.0 
-1.0 -0.0 -0.0 1.0 1.0 0.0 1:6.0 2:14.0 
-1.0 -0.0 -0.0 0.0 1.0 0.0 1:7.0 2:14.0 3:-3.0 4:-3.0 5:-3.0 6:-3.0 
-1.0 -0.0 -0.0 0.0 0.10147716463608969 0.0 1:2.0 2:14.0 3:-3.0 3:3.0 4:-3.0 4:3.0 5:3.0 6:3.0 5:-3.0 6:-3.0 
-1.0 -0.0 -0.0 0.0 0.0 0.0 1:1.0 2:14.0 3:-3.0 4:-3.0 5:-3.0 6:-3.0 
-1.0 -0.0 -0.0 0.0 0.0 0.0 1:5.0 2:14.0 3:-3.0 4:-3.0 5:-3.0 6:-3.0 
-1.0 -0.0 -0.0 0.0 0.4905439729032055 0.0 1:7.0 2:14.0 3:-3.0 4:-3.0 
-1.0 -0.0 -0.0 1.0 1.0 0.0 1:1.0 2:14.0 
-1.0 -0.0 -0.0 1.0 1.0 0.0 1:6.0 2:14.0 
-1.0 -0.0 -0.0 0.0 1.0 0.0 1:7.0 2:14.0 3:-3.0 4:-3.0 5:-3.0 6:-3.0 
-1.0 -0.0 -0.0 0.0 0.0 0.0 1:1.0 2:14.0 3:-3.0 4:-3.0 5:-3.0 6:-3.0 
-1.0 -0.0 -0.0 1.0 1.0 0.0 1:5.0 2:14.0 
-1.0 -0.0 -0.0 1.0 1.0 0.0 1:6.0 2:14.0 
-1.0 -0.0 -0.0 1.0 1.0 0.0 1:7.0 2:14.0 
-1.0 -0.0 -0.0 0.0 0.0 0.0 1:1.0 2:14.0 3:-3.0 4:-3.0 5:-3.0 6:-3.0 
-1.0 -0.0 -0.0 1.0 1.0 0.0 1:2.0 2:14.0 
-1.0 -0.0 -0.0 0.0 0.09493005973209208 0.0 1:4.0 2:14.0 3:-3.0 4:-3.0 3:3.0 5:-3.0 6:-3.0 4:3.0 5:3.0 6:3.0 
-1.0 -0.0 -0.0 1.0 1.0 0.0 1:5.0 2:14.0 
-1.0 -0.0 -0.0 1.0 1.0 0.0 1:6.0 2:14.0 
-1.0 -0.0 -0.0 0.6984738419725339 1.0 0.0 1:7.0 2:14.0 3:-3.0 4:-3.0 5:-3.0 6:-3.0 
-1.0 -0.0 -0.0 0.0 0.0 0.07856310027907884 1:2.0 2:14.0 3:-3.0 4:-3.0 5:-3.0 6:-3.0 
-1.0 -0.09249633477050924 -0.026719311033565882 0.7667043659380367 1.0 0.1181685597605424 1:2.0 2:14.0 3:-3.0 3:3.0 4:-3.0 4:3.0 5:3.0 6:3.0 5:-3.0 6:-3.0 
-1.0 -0.0 -0.0 0.0 0.0 0.0 1:1.0 2:14.0 3:-3.0 4:-3.0 5:-3.0 6:-3.0 
-1.0 -0.0 -0.0 0.0 0.0 0.0 1:5.0 2:14.0 3:-3.0 4:-3.0 5:-3.0 6:-3.0 
-1.0 -0.1028676693906758 -0.029410762815904806 0.9148462016158949 0.9068553331369619 0.13131978699660027 1:7.0 2:14.0 3:-3.0 4:-3.0 
-1.0 -0.0 -0.0 1.0 1.0 0.0 1:1.0 2:14.0 
-1.0 -0.0 -0.0 1.0 1.0 0.0 1:6.0 2:14.0 
-1.0 -0.0 -0.0 1.0 1.0 0.0 1:7.0 2:14.0 3:-3.0 4:-3.0 5:-3.0 6:-3.0 
-1.0 -0.0 -0.0 0.0 0.23557125345504332 0.0 1:1.0 2:14.0 3:-3.0 4:-3.0 5:-3.0 6:-3.0 
-1.0 -0.0 -0.0 1.0 1.0 0.0 1:5.0 2:14.0 
-1.0 -0.0 -0.0 1.0 1.0 0.0 1:6.0 2:14.0 
-1.0 -0.0 -0.0 1.0 1.0 0.0 1:7.0 2:14.0 
-1.0 -0.09017094078705307 -0.026875982573580856 0.7381779181819506 0.999377792800681 0.2514591197942615 1:1.0 2:14.0 3:-3.0 4:-3.0 5:-3.0 6:-3.0 
-1.0 -0.0 -0.0 1.0 1.0 0.0 1:2.0 2:14.0 
-1.0 -0.09282618385759489 -0.02717040135642095 0.7667545250253244 1.0 0.11835935243997323 1:4.0 2:14.0 3:-3.0 4:-3.0 3:3.0 5:-3.0 6:-3.0 4:3.0 5:3.0 6:3.0 
-1.0 -0.0 -0.0 1.0 1.0 0.0 1:5.0 2:14.0 
-1.0 -0.0 -0.0 1.0 1.0 0.0 1:6.0 2:14.0 
-1.0 -0.0 -0.0 1.0 1.0 0.0 1:7.0 2:14.0 3:-3.0 4:-3.0 5:-3.0 6:-3.0 
-1.0 -0.0 -0.0 0.0 0.0 1.0 1:2.0 2:14.0 3:-3.0 4:-3.0 5:-3.0 6:-3.0 
-1.0 -0.0 -0.0 0.0 0.0 0.0 1:5.0 2:14.0 3:-3.0 4:-3.0 5:-3.0 6:-3.0 
-1.0 -0.08476388934061026 -0.023836321221935648 1.0 1.0 0.12478135357156106 1:7.0 2:14.0 3:-3.0 4:-3.0 5:-3.0 6:-3.0 
-1.0 -0.10749648526677225 -0.744121940780098 1.0 1.0 0.12442613848457118 1:1.0 2:14.0 
-1.0 -0.0914577722567017 -0.026283924320415458 1.0 1.0 0.11801255952155443 1:7.0 2:14.0 
-1.0 -0.039899721127844255 -0.012252588743122409 0.32614572964671296 0.0 0.0 1:5.0 2:14.0 3:-3.0 4:-3.0 5:-3.0 6:-3.0 
-1.0 -0.0 -0.0 -1.0 1.0 0.0 1:1.0 2:14.0 3:0.0 4:0.0 5:0.0 6:0.0 
-1.0 -0.0 -0.0 -1.0 1.0 0.0 1:6.0 2:14.0 3:0.0 4:0.0 5:0.0 6:0.0 
-1.0 -0.0 -0.0 -1.0 1.0 0.0 1:7.0 2:14.0 3:0.0 4:0.0 5:0.0 6:0.0 
-1.0 -0.0 -0.0 -1.0 1.0 0.0 1:5.0 2:14.0 3:0.0 4:0.0 5:0.0 6:0.0 
-1.0 -0.0 -0.0 -0.9143331068949304 1.0 0.0 1:4.0 2:14.0 3:0.0 4:0.0 5:0.0 6:0.0 
-1.0 -0.0 -0.0 -1.0 1.0 0.0 1:2.0 2:14.0 
-1.0 -0.0 -0.0 -0.0 1.0 0.0 1:3.0 2:14.0 
-1.0 -0.0 -0.0 -1.0 1.0 0.0 1:1.0 2:14.0 3:0.0 4:0.0 5:0.0 6:0.0 
-1.0 -0.0 -0.0 -1.0 1.0 0.0 1:6.0 2:14.0 3:0.0 4:0.0 5:0.0 6:0.0 
-1.0 -0.0 -0.0 -1.0 1.0 0.0 1:7.0 2:14.0 3:0.0 4:0.0 5:0.0 6:0.0 
-1.0 -0.0 -0.0 -1.0 1.0 0.0 1:5.0 2:14.0 3:0.0 4:0.0 5:0.0 6:0.0 
-1.0 -0.0 -0.0 -0.0 1.0 0.0 1:4.0 2:14.0 3:0.0 4:0.0 5:0.0 6:0.0 
-1.0 -0.0 -0.0 -1.0 1.0 0.0 1:2.0 2:14.0 
-1.0 -0.0 -0.0 -0.9588681613436295 1.0 0.0 1:3.0 2:14.0 
-1.0 -0.0 -0.0 -1.0 1.0 0.0 1:2.0 2:14.0 3:0.0 4:0.0 5:0.0 6:0.0 
-1.0 -0.0 -0.0 -1.0 1.0 0.0 1:3.0 2:14.0 3:0.0 4:0.0 5:0.0 6:0.0 
-1.0 -0.0 -0.0 -1.0 1.0 0.0 1:1.0 2:14.0 3:0.0 4:0.0 5:0.0 6:0.0 
-1.0 -0.0 -0.0 -1.0 1.0 0.0 1:6.0 2:14.0 3:0.0 4:0.0 5:0.0 6:0.0 
-1.0 -0.0 -0.0 -1.0 1.0 0.0 1:7.0 2:14.0 3:0.0 4:0.0 5:0.0 6:0.0 
-1.0 -0.0 -0.0 -1.0 1.0 0.0 1:5.0 2:14.0 3:0.0 4:0.0 5:0.0 6:0.0 
-1.0 -0.08209723115768008 -0.022327301842795626 -0.0 1.0 0.13871674295984587 1:4.0 2:14.0 3:0.0 4:0.0 5:0.0 6:0.0 
-1.0 -0.0 -0.0 -1.0 1.0 0.0 1:2.0 2:14.0 
-1.0 -0.0 -0.0 -1.0 1.0 0.0 1:3.0 2:14.0 
-1.0 -0.0 -0.0 -1.0 1.0 0.0 1:2.0 2:14.0 3:0.0 4:0.0 5:0.0 6:0.0 
-1.0 -0.0 -0.0 -1.0 1.0 0.0 1:3.0 2:14.0 3:0.0 4:0.0 5:0.0 6:0.0 
-1.0 -0.0 -0.0 -1.0 1.0 0.0 1:7.0 2:14.0 3:0.0 4:0.0 5:0.0 6:0.0 
-1.0 -0.0 -0.0 -1.0 1.0 0.0 1:5.0 2:14.0 
-0.0 -0.0 -0.0 -0.0 1.0 0.0 1:7.0 2:14.0 3:3.0 4:3.0 5:3.0 6:3.0 
-0.0 -0.0 -0.0 -0.0 1.0 0.0 1:1.0 2:14.0 3:3.0 4:3.0 
-0.0 -0.0 -0.0 -0.0 1.0 0.0 1:6.0 2:14.0 3:3.0 4:3.0 5:3.0 6:3.0 
-1.0 -0.0 -0.0 -1.0 1.0 0.0 1:7.0 2:14.0 
-0.0 -0.0 -0.0 -0.0 1.0 0.0 1:1.0 2:14.0 3:3.0 
-1.0 -0.0 -0.0 -1.0 1.0 0.0 1:6.0 2:14.0 
-0.0 -0.0 -0.0 -0.0 1.0 0.0 1:2.0 2:14.0 3:3.0 4:3.0 5:3.0 6:3.0 
-1.0 -0.0 -0.0 -1.0 1.0 0.0 1:5.0 2:14.0 
-1.0 -0.0 -0.0 -1.0 1.0 0.0 1:5.0 2:14.0 
-0.0 -0.0 -0.0 -0.0 1.0 0.0 1:7.0 2:14.0 3:3.0 4:3.0 5:3.0 6:3.0 
-0.0 -0.0 -0.0 -0.0 1.0 0.0 1:1.0 2:14.0 3:3.0 4:3.0 
-0.0 -0.0 -0.0 -0.0 1.0 0.0 1:6.0 2:14.0 3:3.0 4:3.0 5:3.0 6:3.0 
-1.0 -0.0 -0.0 -1.0 1.0 0.0 1:7.0 2:14.0 
-0.0 -0.0 -0.0 -0.0 1.0 0.0 1:1.0 2:14.0 3:3.0 
-1.0 -0.0 -0.0 -1.0 1.0 0.0 1:6.0 2:14.0 
-0.5491006817049338 -0.0 -0.0 -0.0 1.0 0.0 1:2.0 2:14.0 3:3.0 4:3.0 5:3.0 6:3.0 
-1.0 -0.0 -0.0 -1.0 1.0 0.0 1:5.0 2:14.0 
-0.0 -0.0 -0.0 -0.0 1.0 0.0 1:7.0 2:14.0 3:3.0 4:3.0 5:3.0 6:3.0 
-1.0 -0.0 -0.0 -1.0 1.0 0.0 1:1.0 2:14.0 
-0.0 -0.0 -0.0 -0.0 1.0 0.0 1:2.0 2:14.0 3:3.0 3:-3.0 4:-3.0 4:3.0 5:3.0 6:3.0 5:-3.0 6:-3.0 
-1.0 -0.0 -0.0 -1.0 1.0 0.0 1:3.0 2:14.0 
-1.0 -0.0 -0.0 -1.0 1.0 0.0 1:5.0 2:14.0 
-1.0 -0.0 -0.0 -0.0 1.0 0.0 1:4.0 2:14.0 3:3.0 4:3.0 5:3.0 6:3.0 
-1.0 -0.0 -0.0 -1.0 1.0 0.0 1:7.0 2:14.0 3:-3.0 4:-3.0 5:-3.0 6:-3.0 
-1.0 -0.0 -0.0 -0.0 1.0 0.0 1:4.0 2:14.0 3:3.0 4:3.0 5:3.0 6:3.0 
-1.0 -0.0 -0.0 -1.0 1.0 0.0 1:5.0 2:14.0 
-0.0 -0.0 -0.0 -0.0 1.0 0.0 1:7.0 2:14.0 3:3.0 4:3.0 5:3.0 6:3.0 
-0.360733109366127 -0.0 -0.0 -0.0 1.0 0.0 1:1.0 2:14.0 3:3.0 4:3.0 
-0.6057204389462336 -0.0 -0.0 -0.0 1.0 0.0 1:6.0 2:14.0 3:3.0 4:3.0 5:3.0 6:3.0 
-1.0 -0.0 -0.0 -1.0 1.0 0.0 1:7.0 2:14.0 
-0.4639362774405065 -0.0 -0.0 -0.025881810264274604 1.0 0.0 1:1.0 2:14.0 3:3.0 
-1.0 -0.0 -0.0 -1.0 1.0 0.0 1:6.0 2:14.0 
-1.0 -0.0 -0.0 -0.0 1.0 0.0 1:2.0 2:14.0 3:3.0 4:3.0 5:3.0 6:3.0 
-1.0 -0.0 -0.0 -1.0 1.0 0.0 1:5.0 2:14.0 
-0.0 -0.0 -0.0 -0.0 1.0 0.0 1:7.0 2:14.0 3:3.0 4:3.0 5:3.0 6:3.0 
-1.0 -0.0 -0.0 -1.0 1.0 0.0 1:1.0 2:14.0 
-0.7610597921232446 -0.0 -0.0 -0.06882033692050689 1.0 0.0 1:2.0 2:14.0 3:3.0 3:-3.0 4:-3.0 4:3.0 5:3.0 6:3.0 5:-3.0 6:-3.0 
-1.0 -0.0 -0.0 -1.0 1.0 0.0 1:3.0 2:14.0 
-1.0 -0.0 -0.0 -1.0 1.0 0.0 1:5.0 2:14.0 
-1.0 -0.0 -0.0 -0.0 1.0 0.0 1:4.0 2:14.0 3:3.0 4:3.0 5:3.0 6:3.0 
-1.0 -0.0 -0.0 -1.0 1.0 0.0 1:7.0 2:14.0 3:-3.0 4:-3.0 5:-3.0 6:-3.0 
-1.0 -0.0 -0.0 -0.0 1.0 0.0 1:4.0 2:14.0 3:3.0 4:3.0 5:3.0 6:3.0 
-0.0 -0.0 -0.0 -0.0 1.0 0.0 1:1.0 2:14.0 3:3.0 4:3.0 5:3.0 6:3.0 
-1.0 -0.0 -0.0 -1.0 1.0 0.0 1:5.0 2:14.0 
-0.0 -0.0 -0.0 -0.0 1.0 0.0 1:7.0 2:14.0 3:3.0 4:3.0 5:3.0 6:3.0 
-0.9893221642407919 -0.09694868271502896 -0.02807866611434503 -0.8175827287598875 1.0 0.17288823880012127 1:1.0 2:14.0 3:3.0 4:3.0 
-1.0 -0.0 -0.0 -0.0 1.0 0.0 1:6.0 2:14.0 3:3.0 4:3.0 5:3.0 6:3.0 
-1.0 -0.0 -0.0 -1.0 1.0 0.0 1:7.0 2:14.0 
-0.9713634454251555 -0.07853449321503951 -0.02334114714568536 -0.9987927916106863 1.0 0.14252262850429648 1:1.0 2:14.0 3:3.0 
-1.0 -0.0 -0.0 -1.0 1.0 0.0 1:6.0 2:14.0 
-0.9828371821600652 -0.0 -0.0 -0.0 1.0 0.0 1:2.0 2:14.0 3:3.0 4:3.0 5:3.0 6:3.0 
-1.0 -0.0 -0.0 -1.0 1.0 0.0 1:5.0 2:14.0 
-0.0 -0.10843478309989638 -0.030519301447987087 -0.9135471220905163 1.0 0.19280134204774604 1:7.0 2:14.0 3:3.0 4:3.0 5:3.0 6:3.0 
-1.0 -0.09594456232898244 -0.7410497752077154 -1.0 1.0 0.154227793992255 1:1.0 2:14.0 
-0.9922261835636107 -0.1260633408546904 -0.035738688179450015 -0.9936103183392128 1.0 0.22521060282089436 1:2.0 2:14.0 3:3.0 3:-3.0 4:-3.0 4:3.0 5:3.0 6:3.0 5:-3.0 6:-3.0 
-1.0 -0.0 -0.0 -0.8619577609886279 1.0 0.0 1:3.0 2:14.0 
-1.0 -0.0 -0.0 -1.0 1.0 0.0 1:5.0 2:14.0 
-1.0 -0.0 -0.0 -0.0 1.0 0.0 1:4.0 2:14.0 3:3.0 4:3.0 5:3.0 6:3.0 
-1.0 -0.1254535725458027 -0.035842686817745724 -1.0 1.0 0.23820898083373426 1:7.0 2:14.0 3:-3.0 4:-3.0 5:-3.0 6:-3.0 
-1.0 -0.0 -0.0 -0.0 1.0 0.0 1:4.0 2:14.0 3:3.0 4:3.0 5:3.0 6:3.0 
-0.0 -0.10231670233859907 -0.02945186738170539 -0.863994992767154 1.0 0.1827891682319808 1:1.0 2:14.0 3:3.0 4:3.0 5:3.0 6:3.0 
-1.0 -0.0 -0.0 -1.0 1.0 0.0 1:2.0 2:14.0 
-1.0 -0.0 -0.0 -0.0 1.0 0.0 1:6.0 2:14.0 3:3.0 4:3.0 5:3.0 6:3.0 
-1.0 -0.10645164804230187 -0.031079822134032844 -1.0 1.0 0.19195183176951522 1:7.0 2:14.0 
-1.0 -0.0 -0.0 -1.0 1.0 0.0 1:5.0 2:14.0 
-1.0 -0.07775498370197857 -0.022570743728537398 -0.6513231162888847 1.0 0.13777741517563957 1:4.0 2:14.0 3:3.0 4:3.0 5:3.0 6:3.0 
-1.0 -0.0 -0.0 -0.0 -0.0 0.0 1:2.0 2:14.0 
-1.0 -0.0 -0.0 -0.0 -0.0 0.0 1:2.0 2:14.0 
-1.0 -0.0 -0.0 -0.0 -0.0 0.0 1:2.0 2:14.0 
-1.0 -0.0 -0.0 -0.0 -0.0 0.0 1:2.0 2:14.0 
-1.0 -0.0 -0.0 -0.0 -0.0 0.0 1:2.0 2:14.0 
-1.0 -0.0 -0.0 -0.0 -0.0 0.0 1:2.0 2:14.0 
-1.0 -0.0 -0.0 -0.0 -0.0 0.0 1:2.0 2:14.0 
-1.0 -0.0 -0.0 -0.0 -0.0 0.0 1:2.0 2:14.0 
-0.04150329332489236 -0.0 -0.0 -0.0 -0.0 0.0 1:5.0 2:14.0 3:3.0 4:3.0 5:3.0 6:3.0 
-1.0 -0.0 -0.0 -0.0 -0.0 0.0 1:2.0 2:14.0 
-0.9246906703077254 -0.08868951119569224 -0.025637589347656697 -0.676207250048036 -0.0 0.16391260888321751 1:5.0 2:14.0 3:2.0 1:5.0 2:14.0 
-1.0 -0.0 -0.0 -0.0 -0.0 0.0 1:7.0 2:14.0 
-1.0 -0.0 -0.0 -0.0 -0.0 0.0 1:7.0 2:14.0 
-1.0 -0.0 -0.0 -0.0 -0.0 0.0 1:7.0 2:14.0 
-1.0 -0.0 -0.0 -0.0 -0.0 0.0 1:6.0 2:14.0 
-1.0 -0.0 -0.0 -0.0 -0.0 0.0 1:7.0 2:14.0 
-1.0 -0.0 -0.0 -0.0 -0.0 0.0 1:1.0 2:14.0 3:0.0 
-1.0 -0.0 -0.0 -0.0 -0.0 0.0 1:6.0 2:14.0 
-1.0 -0.0 -0.0 -0.0 -0.0 0.0 1:7.0 2:14.0 
-1.0 -0.0 -0.0 -0.0 -0.0 0.0 1:6.0 2:14.0 
-0.09806004758806922 -0.0 -0.0 -0.0 -0.0 0.0 1:1.0 2:14.0 3:0.0 4:3.0 
-1.0 -0.0 -0.0 -0.0 -0.0 0.0 1:1.0 2:14.0 
-1.0 -0.0 -0.0 -0.0 -0.0 0.0 1:1.0 2:14.0 3:0.0 4:3.0 
-0.25295381822426627 -0.0 -0.0 -0.0 -0.0 0.0 1:6.0 2:14.0 3:0.0 4:3.0 5:3.0 6:3.0 
-0.9967905069824973 -0.05691360744240079 -0.016688533203538615 -0.4318742347826897 -0.0 0.10419388942237845 1:1.0 2:14.0 3:0.0 4:3.0 
-1.0 -0.0 -0.0 -0.0 -0.0 0.0 1:7.0 2:14.0 
-1.0 -0.0 -0.0 -0.0 -0.0 0.0 1:1.0 2:14.0 3:0.0 
-1.0 -0.0 -0.0 -0.0 -0.0 0.0 1:6.0 2:14.0 3:0.0 4:3.0 5:3.0 6:3.0 
-1.0 -0.0 -0.0 -0.0 -0.0 0.0 1:7.0 2:14.0 
-1.0 -0.0 -0.0 -0.0 -0.0 0.0 1:7.0 2:14.0 
-1.0 -0.0 -0.0 -0.0 -0.0 0.0 1:7.0 2:14.0 
-1.0 -0.0 -0.0 -0.0 -0.0 0.0 1:7.0 2:14.0 
-1.0 -0.0 -0.0 -0.0 -0.0 0.0 1:7.0 2:14.0 
-1.0 -0.0 -0.0 -0.0 -0.0 0.0 1:1.0 2:14.0 3:0.0 
-1.0 -0.0 -0.0 -0.0 -0.0 0.0 1:6.0 2:14.0 
-0.6882672596555379 -0.0 -0.0 -0.0 -0.0 0.0 1:2.0 2:14.0 3:0.0 4:3.0 5:3.0 6:3.0 
-0.7981347831127988 -0.0 -0.0 -0.0 -0.0 0.0 1:7.0 2:14.0 3:0.0 4:3.0 5:3.0 6:3.0 
-1.0 -0.0 -0.0 -0.0 -0.0 0.0 1:6.0 2:14.0 
-1.0 -0.0 -0.0 -0.0 -0.0 0.0 1:1.0 2:14.0 3:0.0 
-1.0 -0.0 -0.0 -0.0 -0.0 0.0 1:6.0 2:14.0 
-1.0 -0.0 -0.0 -0.0 -0.0 0.0 1:2.0 2:14.0 3:0.0 4:3.0 5:3.0 6:3.0 
-1.0 -0.0 -0.0 -0.0 -0.0 0.0 1:1.0 2:14.0 
-1.0 -0.0 -0.0 -0.0 -0.0 0.0 1:7.0 2:14.0 
-1.0 -0.0 -0.0 -0.0 -0.0 0.0 1:7.0 2:14.0 3:-3.0 4:-3.0 5:-3.0 6:-3.0 
-1.0 -0.0 -0.0 -0.0 -0.0 0.0 1:6.0 2:14.0 
-1.0 -0.0 -0.0 -0.0 -0.0 0.0 1:6.0 2:14.0 
-1.0 -0.0 -0.0 -0.0 -0.0 0.0 1:1.0 2:14.0 
-1.0 -0.0 -0.0 -0.0 -0.0 0.0 1:7.0 2:14.0 3:0.0 4:3.0 5:3.0 6:3.0 
-0.8972601142062708 -0.051215011640497604 -0.014550579520239745 -0.3898601235937151 -0.0 0.09399496116195652 1:2.0 2:14.0 3:0.0 4:3.0 5:3.0 6:3.0 
-1.0 -0.0 -0.0 -0.0 -0.0 0.0 1:6.0 2:14.0 
-1.0 -0.0 -0.0 -0.0 -0.0 0.0 1:1.0 2:14.0 
-1.0 -0.0 -0.0 -0.0 -0.0 0.0 1:2.0 2:14.0 3:0.0 3:-3.0 4:-3.0 4:3.0 5:3.0 6:3.0 5:-3.0 6:-3.0 
-1.0 -0.0 -0.0 -0.3697093035410808 -0.0 0.0 1:7.0 2:14.0 3:-3.0 4:-3.0 5:-3.0 6:-3.0 
-1.0 -0.0 -0.0 -1.0 -0.0 0.0 1:7.0 2:14.0 3:-3.0 4:-3.0 5:-3.0 6:-3.0 
-1.0 -0.0 -0.0 -0.0 -0.0 0.0 1:4.0 2:14.0 3:0.0 4:3.0 5:3.0 6:3.0 
-1.0 -0.0 -0.0 -0.0 -0.0 0.0 1:6.0 2:14.0 
-1.0 -0.0 -0.0 -0.0 -0.0 0.0 1:1.0 2:14.0 
-0.6398996708766467 -0.0 -0.0 -0.0 -0.0 0.0 1:5.0 2:14.0 
-1.0 -0.0 -0.0 -1.0 -0.0 0.0 1:7.0 2:14.0 3:-3.0 4:-3.0 5:-3.0 6:-3.0 
-1.0 -0.0 -0.0 -0.0 -0.0 0.0 1:5.0 2:14.0 
-0.7607101865675353 -0.06414758914147106 -0.01785860353995466 -0.487058235302777 -0.0 0.11792810706971847 1:7.0 2:14.0 3:0.0 4:3.0 5:3.0 6:3.0 
-1.0 -0.0 -0.0 -0.0 -0.0 0.0 1:1.0 2:14.0 
-1.0 -0.0 -0.0 -0.0 -0.0 0.0 1:5.0 2:14.0 
-1.0 -0.0 -0.0 -1.0 -0.0 0.0 1:7.0 2:14.0 3:-3.0 4:-3.0 5:-3.0 6:-3.0 
-1.0 -0.0 -0.0 -0.0 -0.0 0.0 1:1.0 2:14.0 
-0.8047788431939948 -0.07281351984605997 -0.020533894531978177 -0.6052592539135643 -0.0 0.1342508821220179 1:2.0 2:14.0 3:0.0 3:-3.0 4:-3.0 4:3.0 5:3.0 6:3.0 5:-3.0 6:-3.0 
-1.0 -0.0 -0.0 -0.0 -0.0 0.0 1:5.0 2:14.0 
-0.8744763197270353 -0.030615768340349465 -0.009462260461504684 -0.23180462755635903 -0.0 0.05665142812823464 1:4.0 2:14.0 3:0.0 4:3.0 5:3.0 6:3.0 
-1.0 -0.0 -0.0 -1.0 -0.0 0.0 1:7.0 2:14.0 3:-3.0 4:-3.0 5:-3.0 6:-3.0 
-1.0 -0.0 -0.0 -0.0 -0.0 0.0 1:1.0 2:14.0 
-1.0 -0.0 -0.0 -0.0 -0.0 0.0 1:5.0 2:14.0 
-1.0 -0.0 -0.0 -1.0 -0.0 0.0 1:7.0 2:14.0 3:-3.0 4:-3.0 5:-3.0 6:-3.0 
-1.0 -0.0 -0.0 -1.0 -0.0 0.0 1:7.0 2:14.0 3:-3.0 4:-3.0 5:-3.0 6:-3.0 
-1.0 -0.0 -0.0 -0.0 -0.0 0.0 1:5.0 2:14.0 
-1.0 -0.0 -0.0 -0.0 -0.0 0.0 1:7.0 2:14.0 
-1.0 -0.0 -0.0 -0.0 -0.0 0.0 1:6.0 2:14.0 
-1.0 -0.0 -0.0 -0.0 -0.0 0.0 1:5.0 2:14.0 
-1.0 -0.0 -0.0 -0.0 -0.0 0.0 1:1.0 2:14.0 
-1.0 -0.0 -0.0 -0.0 -0.0 0.0 1:5.0 2:14.0 
-1.0 -0.0 -0.0 -1.0 -0.0 0.0 1:7.0 2:14.0 3:-3.0 4:-3.0 5:-3.0 6:-3.0 
-1.0 -0.0 -0.0 -0.0 -0.0 0.0 1:5.0 2:14.0 
-1.0 -0.0 -0.0 -0.0 -0.0 0.0 1:7.0 2:14.0 
-1.0 -0.0 -0.0 -0.0 -0.0 0.0 1:6.0 2:14.0 
-1.0 -0.0 -0.0 -0.0 -0.0 0.0 1:5.0 2:14.0 
-1.0 -0.0 -0.0 -0.0 -0.0 0.0 1:1.0 2:14.0 
-1.0 -0.0 -0.0 -0.0 -0.0 0.0 1:5.0 2:14.0 
-1.0 -0.0 -0.0 -1.0 -0.0 0.0 1:7.0 2:14.0 3:-3.0 4:-3.0 5:-3.0 6:-3.0 
-1.0 -0.0 -0.0 -0.0 -0.0 0.0 1:5.0 2:14.0 
-1.0 -0.0 -0.0 -0.0 -0.0 0.0 1:7.0 2:14.0 
-1.0 -0.0 -0.0 -0.0 -0.0 0.0 1:6.0 2:14.0 
-1.0 -0.0 -0.0 -0.0 -0.0 0.0 1:5.0 2:14.0 
-1.0 -0.0 -0.0 -0.0 -0.0 0.0 1:1.0 2:14.0 
-1.0 -0.0 -0.0 -0.0 -0.0 0.0 1:5.0 2:14.0 
-1.0 -0.0 -0.0 -1.0 -0.0 0.0 1:7.0 2:14.0 3:-3.0 4:-3.0 5:-3.0 6:-3.0 
-1.0 -0.0 -0.0 -0.0 -0.0 0.0 1:2.0 2:14.0 
-1.0 -0.0 -0.0 -0.0 -0.0 0.0 1:7.0 2:14.0 
-1.0 -0.0 -0.0 -0.0 -0.0 0.0 1:5.0 2:14.0 
-1.0 -0.0 -0.0 -0.0 -0.0 0.0 1:7.0 2:14.0 
-1.0 -0.0 -0.0 -0.0 -0.0 0.0 1:6.0 2:14.0 
-1.0 -0.0 -0.0 -0.0 -0.0 0.0 1:5.0 2:14.0 
-1.0 -0.0 -0.0 -0.0 -0.0 0.0 1:1.0 2:14.0 
-1.0 -0.0 -0.0 -0.0 -0.0 0.0 1:5.0 2:14.0 
-1.0 -0.0 -0.0 -1.0 -0.0 0.0 1:7.0 2:14.0 3:-3.0 4:-3.0 5:-3.0 6:-3.0 
-1.0 -0.0 -0.0 -0.0 -0.0 0.0 1:2.0 2:14.0 
-1.0 -0.0 -0.0 -0.0 -0.0 0.0 1:7.0 2:14.0 
-1.0 -0.0 -0.0 -0.0 -0.0 0.0 1:5.0 2:14.0 
-1.0 -0.0 -0.0 -0.0 -0.0 0.0 1:5.0 2:14.0 
-1.0 -0.0 -0.0 -0.0 -0.0 0.0 1:7.0 2:14.0 
-1.0 -0.0 -0.0 -0.0 -0.0 0.0 1:6.0 2:14.0 
-1.0 -0.0 -0.0 -0.0 -0.0 0.0 1:5.0 2:14.0 
-1.0 -0.0 -0.0 -0.0 -0.0 0.0 1:1.0 2:14.0 
-1.0 -0.0 -0.0 -0.0 -0.0 0.0 1:3.0 2:14.0 
-1.0 -0.0 -0.0 -0.0 -0.0 0.0 1:5.0 2:14.0 
-1.0 -0.0 -0.0 -1.0 -0.0 0.0 1:7.0 2:14.0 3:-3.0 4:-3.0 5:-3.0 6:-3.0 
-1.0 -0.0 -0.0 -0.0 -0.0 0.0 1:2.0 2:14.0 
-1.0 -0.0 -0.0 -0.0 -0.0 0.0 1:7.0 2:14.0 
-1.0 -0.0 -0.0 -0.0 -0.0 0.0 1:5.0 2:14.0 
-1.0 -0.0 -0.0 -0.0 -0.0 0.0 1:5.0 2:14.0 
-1.0 -0.0 -0.0 -0.0 -0.0 0.0 1:7.0 2:14.0 
-1.0 -0.0 -0.0 -1.0 -0.0 0.0 1:6.0 2:14.0 
-1.0 -0.0 -0.0 -0.0 -0.0 0.0 1:5.0 2:14.0 
-1.0 -0.0 -0.0 -0.0 -0.0 0.0 1:1.0 2:14.0 
-1.0 -0.0 -0.0 -0.0 -0.0 0.0 1:3.0 2:14.0 
-1.0 -0.0 -0.0 -0.0 -0.0 0.0 1:5.0 2:14.0 
-1.0 -0.0 -0.0 -1.0 -0.0 0.0 1:7.0 2:14.0 3:-3.0 4:-3.0 5:-3.0 6:-3.0 
-1.0 -0.0 -0.0 -0.0 -0.0 0.0 1:2.0 2:14.0 
-1.0 -0.0 -0.0 -0.0 -0.0 0.0 1:7.0 2:14.0 
-1.0 -0.0 -0.0 -0.0 -0.0 0.0 1:5.0 2:14.0 
-1.0 -0.0 -0.0 -0.0 -0.0 0.0 1:5.0 2:14.0 
-1.0 -0.0 -0.0 -0.0 -0.0 0.0 1:7.0 2:14.0 
-1.0 -0.0 -0.0 -1.0 -0.0 0.0 1:6.0 2:14.0 
-1.0 -0.0 -0.0 -0.0 -0.0 0.0 1:5.0 2:14.0 
-1.0 -0.0 -0.0 -0.0 -0.0 0.0 1:1.0 2:14.0 
-1.0 -0.0 -0.0 -0.0 -0.0 0.0 1:3.0 2:14.0 
-1.0 -0.0 -0.0 -0.0 -0.0 0.0 1:5.0 2:14.0 
-1.0 -0.0 -0.0 -1.0 -0.0 0.0 1:7.0 2:14.0 3:-3.0 4:-3.0 5:-3.0 6:-3.0 
-1.0 -0.0 -0.0 -0.0 -0.0 0.0 1:2.0 2:14.0 
-1.0 -0.0 -0.0 -0.0 -0.0 0.0 1:7.0 2:14.0 
-1.0 -0.0 -0.0 -0.0 -0.0 0.0 1:5.0 2:14.0 
-1.0 -0.0 -0.0 -0.0 -0.0 0.0 1:5.0 2:14.0 
-1.0 -0.0 -0.0 -0.0 -0.0 0.0 1:7.0 2:14.0 
-1.0 -0.0 -0.0 -1.0 -0.0 0.0 1:6.0 2:14.0 
-1.0 -0.0 -0.0 -0.0 -0.0 0.0 1:5.0 2:14.0 
-1.0 -0.0 -0.0 -0.0 -0.0 0.0 1:1.0 2:14.0 
-1.0 -0.0 -0.0 -0.0 -0.0 0.0 1:3.0 2:14.0 
-1.0 -0.0 -0.0 -0.0 -0.0 0.0 1:5.0 2:14.0 
-1.0 -0.0 -0.0 -1.0 -0.0 0.0 1:7.0 2:14.0 3:-3.0 4:-3.0 5:-3.0 6:-3.0 
-1.0 -0.0 -0.0 -0.0 -0.0 0.0 1:2.0 2:14.0 
-1.0 -0.0 -0.0 -0.0 -0.0 0.0 1:7.0 2:14.0 
-1.0 -0.0 -0.0 -0.0 -0.0 0.0 1:5.0 2:14.0 
-1.0 -0.0 -0.0 -0.0 -0.0 0.0 1:5.0 2:14.0 
-1.0 -0.0 -0.0 -0.0 -0.0 0.0 1:7.0 2:14.0 
-1.0 -0.0 -0.0 -1.0 -0.0 0.0 1:6.0 2:14.0 
-1.0 -0.0 -0.0 -0.0 -0.0 0.0 1:5.0 2:14.0 
-1.0 -0.0 -0.0 -0.0 -0.0 0.0 1:1.0 2:14.0 
-1.0 -0.0 -0.0 -0.0 -0.0 0.0 1:3.0 2:14.0 
-1.0 -0.0 -0.0 -0.0 -0.0 0.0 1:5.0 2:14.0 
-1.0 -0.0 -0.0 -1.0 -0.0 0.0 1:7.0 2:14.0 3:-3.0 4:-3.0 5:-3.0 6:-3.0 
-1.0 -0.0 -0.0 -1.0 -0.0 0.0 1:2.0 2:14.0 
-1.0 -0.0 -0.0 -0.0 -0.0 0.0 1:7.0 2:14.0 
-1.0 -0.0 -0.0 -0.0 -0.0 0.0 1:5.0 2:14.0 
-1.0 -0.0 -0.0 -0.0 -0.0 0.0 1:5.0 2:14.0 
-1.0 -0.0 -0.0 -0.0 -0.0 0.0 1:7.0 2:14.0 
-1.0 -0.0 -0.0 -1.0 -0.0 0.0 1:6.0 2:14.0 
-1.0 -0.0 -0.0 -0.0 -0.0 0.0 1:5.0 2:14.0 
-1.0 -0.0 -0.0 -0.0 -0.0 0.0 1:1.0 2:14.0 
-1.0 -0.0 -0.0 -0.0 -0.0 0.0 1:3.0 2:14.0 
-1.0 -0.0 -0.0 -0.0 -0.0 0.0 1:5.0 2:14.0 
-1.0 -0.0 -0.0 -1.0 -0.0 0.0 1:7.0 2:14.0 3:-3.0 4:-3.0 5:-3.0 6:-3.0 
-1.0 -0.0 -0.0 -0.8524230387265017 -0.0 0.0 1:2.0 2:14.0 
-1.0 -0.0 -0.0 -0.0 -0.0 0.0 1:7.0 2:14.0 
-1.0 -0.0 -0.0 -0.0 -0.0 0.0 1:5.0 2:14.0 
-1.0 -0.0 -0.0 -0.0 -0.0 0.0 1:5.0 2:14.0 
-1.0 -0.0 -0.0 -0.04592797444537001 -0.0 0.0 1:7.0 2:14.0 
-1.0 -0.0 -0.0 -0.847151258883923 -0.0 0.0 1:6.0 2:14.0 
-1.0 -0.0 -0.0 -0.26034272092262906 -0.0 0.0 1:5.0 2:14.0 
-1.0 -0.0 -0.0 -0.04655116578696064 -0.0 0.0 1:1.0 2:14.0 
-1.0 -0.0 -0.0 -0.2578911877794435 -0.0 0.0 1:3.0 2:14.0 
-1.0 -0.0 -0.0 -0.0 -0.0 0.0 1:5.0 2:14.0 
-1.0 -0.0 -0.0 -1.0 -0.0 0.0 1:7.0 2:14.0 3:-3.0 4:-3.0 5:-3.0 6:-3.0 
-1.0 -0.0 -0.0 -1.0 -0.0 0.0 1:2.0 2:14.0 
-1.0 -0.0 -0.0 -0.0 -0.0 0.0 1:7.0 2:14.0 
-1.0 -0.0 -0.0 -0.0 -0.0 0.0 1:5.0 2:14.0 
-1.0 -0.0 -0.0 -0.0 -0.0 0.0 1:5.0 2:14.0 
-1.0 -0.0 -0.0 -0.0 -0.0 0.0 1:7.0 2:14.0 
-1.0 -0.0 -0.0 -1.0 -0.0 0.0 1:6.0 2:14.0 
-1.0 -0.0 -0.0 -0.0 -0.0 0.0 1:5.0 2:14.0 
-1.0 -0.0 -0.0 -0.43270804225433057 -0.0 0.0 1:1.0 2:14.0 
-1.0 -0.0 -0.0 -0.0 -1.0 0.0 1:3.0 2:14.0 
-1.0 -0.0 -0.0 -0.0 -0.0 0.0 1:5.0 2:14.0 
-1.0 -0.0 -0.0 -1.0 -0.0 0.0 1:7.0 2:14.0 3:-3.0 4:-3.0 5:-3.0 6:-3.0 
-1.0 -0.0 -0.0 -1.0 -0.0 0.0 1:2.0 2:14.0 
-1.0 -0.0 -0.0 -0.0 -0.0 0.0 1:7.0 2:14.0 
-1.0 -0.0 -0.0 -0.0 -0.0 0.0 1:5.0 2:14.0 
-1.0 -0.0 -0.0 -0.0 -0.0 0.0 1:5.0 2:14.0 
-1.0 -0.0 -0.0 -0.0 -0.0 0.0 1:7.0 2:14.0 
-1.0 -0.0 -0.0 -1.0 -1.0 0.0 1:6.0 2:14.0 
-1.0 -0.0 -0.0 -0.0 -0.0 0.0 1:5.0 2:14.0 
-1.0 -0.0 -0.0 -1.0 -0.0 0.0 1:1.0 2:14.0 
-1.0 -0.0 -0.0 -0.0 -1.0 0.0 1:3.0 2:14.0 
-1.0 -0.0 -0.0 -0.0 -0.0 0.0 1:5.0 2:14.0 
-1.0 -0.0 -0.0 -1.0 -0.0 0.0 1:7.0 2:14.0 3:-3.0 4:-3.0 5:-3.0 6:-3.0 
-1.0 -0.0 -0.0 -1.0 -1.0 0.0 1:2.0 2:14.0 
-1.0 -0.0 -0.0 -0.0 -0.0 0.0 1:7.0 2:14.0 
-1.0 -0.0 -0.0 -0.0 -0.0 0.0 1:5.0 2:14.0 
-1.0 -0.0 -0.0 -0.0 -0.0 0.0 1:5.0 2:14.0 
-1.0 -0.0 -0.0 -0.0 -0.0 0.0 1:7.0 2:14.0 
-1.0 -0.0 -0.0 -1.0 -1.0 0.0 1:6.0 2:14.0 
-1.0 -0.0 -0.0 -0.0 -0.0 0.0 1:5.0 2:14.0 
-1.0 -0.0 -0.0 -1.0 -1.0 0.0 1:1.0 2:14.0 
-1.0 -0.0 -0.0 -0.0 -1.0 0.0 1:3.0 2:14.0 
-1.0 -0.0 -0.0 -0.0 -0.0 0.0 1:5.0 2:14.0 
-1.0 -0.0 -0.0 -1.0 -0.0 0.0 1:7.0 2:14.0 3:-3.0 4:-3.0 5:-3.0 6:-3.0 
-1.0 -0.0 -0.0 -1.0 -1.0 0.0 1:2.0 2:14.0 
-1.0 -0.0 -0.0 -0.0 -0.0 0.0 1:7.0 2:14.0 
-1.0 -0.0 -0.0 -0.0 -0.0 0.0 1:5.0 2:14.0 
-1.0 -0.0 -0.0 -0.0 -0.0 0.0 1:5.0 2:14.0 
-1.0 -0.0 -0.0 -0.0 -1.0 0.0 1:7.0 2:14.0 
-1.0 -0.0 -0.0 -1.0 -1.0 0.0 1:6.0 2:14.0 
-1.0 -0.0 -0.0 -0.0 -0.0 0.0 1:5.0 2:14.0 
-1.0 -0.0 -0.0 -1.0 -1.0 0.0 1:1.0 2:14.0 
-1.0 -0.0 -0.0 -0.5265288956619614 -1.0 0.0 1:3.0 2:14.0 
-1.0 -0.0 -0.0 -0.0 -0.0 0.0 1:5.0 2:14.0 
-1.0 -0.0 -0.0 -1.0 -0.0 0.0 1:7.0 2:14.0 3:-3.0 4:-3.0 5:-3.0 6:-3.0 
-1.0 -0.0 -0.0 -0.0 -0.0 0.0 1:5.0 2:14.0 
-1.0 -0.0 -0.0 -1.0 -1.0 0.0 1:2.0 2:14.0 
-0.0 -0.0 -0.0 -0.0 -1.0 0.0 1:1.0 2:14.0 3:3.0 4:3.0 
-1.0 -0.0 -0.0 -0.0 -1.0 0.0 1:7.0 2:14.0 
-1.0 -0.0 -0.0 -0.6969428803254276 -1.0 0.0 1:7.0 2:14.0 
-1.0 -0.0 -0.0 -0.0 -0.0 0.0 1:5.0 2:14.0 
-0.40994203438438725 -0.0 -0.0 -0.0 -0.0 0.0 1:4.0 2:14.0 3:3.0 4:3.0 5:3.0 6:3.0 
-0.0 -0.0 -0.0 -0.0 -1.0 0.0 1:1.0 2:14.0 3:3.0 
-1.0 -0.0 -0.0 -1.0 -1.0 0.0 1:6.0 2:14.0 
-0.0 -0.0 -0.0 -0.0 -1.0 0.0 1:2.0 2:14.0 3:3.0 4:3.0 5:3.0 6:3.0 
-1.0 -0.0 -0.0 -0.0 -0.0 0.0 1:5.0 2:14.0 
-1.0 -0.0 -0.0 -1.0 -1.0 0.0 1:1.0 2:14.0 
-0.0 -0.0 -0.0 -0.6941663194362382 -0.0 0.0 1:4.0 2:14.0 
-1.0 -0.0 -0.0 -1.0 -1.0 0.0 1:3.0 2:14.0 
-1.0 -0.0 -0.0 -0.0 -0.0 0.0 1:5.0 2:14.0 
-1.0 -0.0 -0.0 -0.0 -1.0 0.0 1:5.0 2:14.0 
-1.0 -0.0 -0.0 -0.0 -0.0 0.0 1:4.0 2:14.0 3:3.0 4:3.0 5:3.0 6:3.0 
-1.0 -0.0 -0.0 -1.0 -1.0 0.0 1:7.0 2:14.0 3:-3.0 4:-3.0 5:-3.0 6:-3.0 
-1.0 -0.0 -0.0 -0.0 -0.0 0.0 1:4.0 2:14.0 3:3.0 4:3.0 5:3.0 6:3.0 
-1.0 -0.0 -0.0 -0.005652459159698395 -1.0 0.0 1:2.0 2:14.0 
-1.0 -0.0 -0.0 -1.0 -1.0 0.0 1:7.0 2:14.0 
-1.0 -0.0 -0.0 -0.5297814007476885 -1.0 0.0 1:5.0 2:14.0 
-1.0 -0.0 -0.0 -0.0 -1.0 0.0 1:4.0 2:14.0 3:3.0 4:3.0 5:3.0 6:3.0 
-0.0 -0.0 -0.0 -0.3427544373356124 -1.0 0.0 1:4.0 2:14.0 
-1.0 -0.0 -0.0 -1.0 -1.0 0.0 1:5.0 2:14.0 
-1.0 -0.0 -0.0 -1.0 -1.0 0.0 1:5.0 2:14.0 
-0.0 -0.0 -0.0 -0.0 -1.0 0.0 1:1.0 2:14.0 3:3.0 4:3.0 
-1.0 -0.0 -0.0 -1.0 -1.0 0.0 1:7.0 2:14.0 
-0.0 -0.0 -0.0 -0.0 -1.0 0.0 1:1.0 2:14.0 3:3.0 
-1.0 -0.0 -0.0 -0.025992281808528188 -1.0 0.0 1:6.0 2:14.0 
-0.0 -0.0 -0.0 -0.0 -1.0 0.0 1:2.0 2:14.0 3:3.0 4:3.0 5:3.0 6:3.0 
-1.0 -0.0 -0.0 -1.0 -1.0 0.0 1:5.0 2:14.0 
-0.0 -0.0 -0.0 -0.0 -1.0 0.0 1:7.0 2:14.0 3:3.0 4:3.0 5:3.0 6:3.0 
-1.0 -0.0 -0.0 -1.0 -1.0 0.0 1:1.0 2:14.0 
-0.0 -0.0 -0.0 -0.0 -1.0 0.0 1:2.0 2:14.0 3:3.0 3:-3.0 4:-3.0 4:3.0 5:3.0 6:3.0 5:-3.0 6:-3.0 
-1.0 -0.0 -0.0 -1.0 -1.0 0.0 1:3.0 2:14.0 
-1.0 -0.0 -0.0 -1.0 -1.0 0.0 1:5.0 2:14.0 
-1.0 -0.0 -0.0 -0.0 -1.0 0.0 1:4.0 2:14.0 3:3.0 4:3.0 5:3.0 6:3.0 
-1.0 -0.0 -0.0 -1.0 -1.0 0.0 1:7.0 2:14.0 3:-3.0 4:-3.0 5:-3.0 6:-3.0 
-1.0 -0.0 -0.0 -0.0 -1.0 0.0 1:4.0 2:14.0 3:3.0 4:3.0 5:3.0 6:3.0 
-0.0 -0.0 -0.0 -0.0 -1.0 0.0 1:1.0 2:14.0 3:3.0 4:3.0 5:3.0 6:3.0 
-1.0 -0.0 -0.0 -0.0 -1.0 0.0 1:2.0 2:14.0 
-1.0 -0.0 -0.0 -1.0 -1.0 0.0 1:7.0 2:14.0 
-1.0 -0.0 -0.0 -1.0 -1.0 0.0 1:5.0 2:14.0 
-1.0 -0.0 -0.0 -0.0 -1.0 0.0 1:4.0 2:14.0 3:3.0 4:3.0 5:3.0 6:3.0 
-0.0 -0.0 -0.0 -0.0 -1.0 0.0 1:7.0 2:14.0 3:3.0 4:3.0 5:3.0 6:3.0 
-0.0 -0.0 -0.0 -0.0 -1.0 0.0 1:4.0 2:14.0 
-1.0 -0.0 -0.0 -1.0 -1.0 0.0 1:5.0 2:14.0 
-1.0 -0.0 -0.0 -1.0 -1.0 0.0 1:5.0 2:14.0 
-0.0 -0.0 -0.0 -0.0 -1.0 0.0 1:7.0 2:14.0 3:3.0 4:3.0 5:3.0 6:3.0 
-0.0 -0.0 -0.0 -0.0 -1.0 0.0 1:1.0 2:14.0 3:3.0 4:3.0 
-0.0 -0.0 -0.0 -0.0 -1.0 0.0 1:6.0 2:14.0 3:3.0 4:3.0 5:3.0 6:3.0 
-1.0 -0.0 -0.0 -1.0 -1.0 0.0 1:7.0 2:14.0 
-0.13074489719802485 -0.0 -0.0 -0.0 -1.0 0.0 1:1.0 2:14.0 3:3.0 
-1.0 -0.0 -0.0 -0.0 -1.0 0.0 1:6.0 2:14.0 
-0.0 -0.0 -0.0 -0.0 -1.0 0.0 1:2.0 2:14.0 3:3.0 4:3.0 5:3.0 6:3.0 
-1.0 -0.0 -0.0 -1.0 -1.0 0.0 1:5.0 2:14.0 
-0.0 -0.0 -0.0 -0.0 -1.0 0.0 1:7.0 2:14.0 3:3.0 4:3.0 5:3.0 6:3.0 
-1.0 -0.0 -0.0 -1.0 -1.0 0.0 1:1.0 2:14.0 
-0.0 -0.0 -0.0 -0.0 -1.0 0.0 1:2.0 2:14.0 3:3.0 3:-3.0 4:-3.0 4:3.0 5:3.0 6:3.0 5:-3.0 6:-3.0 
-0.06353441190111209 -0.0 -0.0 -1.0 -1.0 0.0 1:3.0 2:14.0 
-1.0 -0.0 -0.0 -1.0 -1.0 0.0 1:5.0 2:14.0 
-1.0 -0.0 -0.0 -0.0 -1.0 0.0 1:4.0 2:14.0 3:3.0 4:3.0 5:3.0 6:3.0 
-1.0 -0.08847428719346084 -0.025568053493137094 -0.9810710718599182 -1.0 0.1782717751374664 1:7.0 2:14.0 3:-3.0 4:-3.0 5:-3.0 6:-3.0 
-1.0 -0.0 -0.0 -0.0 -1.0 0.0 1:4.0 2:14.0 3:3.0 4:3.0 5:3.0 6:3.0 
-0.7134927904550369 -0.06370870386803718 -0.018406278236386863 -0.4833229256222239 -1.0 0.11751054924945163 1:1.0 2:14.0 3:3.0 4:3.0 5:3.0 6:3.0 
-1.0 -0.0 -0.0 -0.0 -1.0 0.0 1:2.0 2:14.0 
-0.0 -0.0 -0.0 -0.0 -1.0 0.0 1:6.0 2:14.0 3:3.0 4:3.0 5:3.0 6:3.0 
-1.0 -0.0 -0.0 -1.0 -1.0 0.0 1:7.0 2:14.0 
-1.0 -0.0 -0.0 -1.0 -1.0 0.0 1:5.0 2:14.0 
-1.0 -0.04360052159865106 -0.012612798963184015 -0.3324552609908545 -1.0 0.08047586751035035 1:4.0 2:14.0 3:3.0 4:3.0 5:3.0 6:3.0 
-0.0 -0.0 -0.0 -0.0 -1.0 0.0 1:6.0 2:14.0 3:3.0 4:3.0 5:3.0 6:3.0 
-0.0 -0.0 -0.0 -0.0 -1.0 0.0 1:7.0 2:14.0 3:3.0 4:3.0 5:3.0 6:3.0 
-0.0 -0.0578340298339129 -0.015203978266659073 -0.0 -1.0 0.10048620297932254 1:4.0 2:14.0 
-1.0 -0.0 -0.0 -1.0 -1.0 0.0 1:5.0 2:14.0 
-0.0 -0.0 -0.0 -0.0 -1.0 0.0 1:6.0 2:14.0 3:3.0 4:3.0 5:3.0 6:3.0 
-1.0 -0.0 -0.0 -1.0 -1.0 0.0 1:5.0 2:14.0 
-0.0 -0.0 -0.0 -0.0 -1.0 0.0 1:7.0 2:14.0 3:3.0 4:3.0 5:3.0 6:3.0 
-0.4674849389008723 -0.055681736487214646 -0.016018447917643022 -0.4238709242038182 -1.0 0.10301437193197494 1:1.0 2:14.0 3:3.0 4:3.0 
-0.0 -0.0 -0.0 -0.0 -1.0 0.0 1:6.0 2:14.0 3:3.0 4:3.0 5:3.0 6:3.0 
-1.0 -0.07466268624135558 -0.021370782053023583 -1.0 -1.0 0.13899435665500226 1:7.0 2:14.0 
-0.9801201053668551 -0.057970823149762436 -0.01702916144273169 -0.4512405244187613 -1.0 0.10865149485236592 1:1.0 2:14.0 3:3.0 
-1.0 -0.0 -0.0 -0.0 -1.0 0.0 1:6.0 2:14.0 
-0.0 -0.0 -0.0 -0.0 -1.0 0.0 1:2.0 2:14.0 3:3.0 4:3.0 5:3.0 6:3.0 
-1.0 -0.0 -0.0 -1.0 -1.0 0.0 1:5.0 2:14.0 
-0.6409923162025379 -0.06264186647958454 -0.018375183411504056 -0.477070273544293 -1.0 0.11602569308766739 1:7.0 2:14.0 3:3.0 4:3.0 5:3.0 6:3.0 
-1.0 -0.05732503506739365 -0.7299039671762965 -0.9981775882424029 -1.0 0.08935203106546356 1:1.0 2:14.0 
-0.7448811263259992 -0.07302571766301105 -0.020779888434561657 -0.5412768967628152 -1.0 0.13388973018594663 1:2.0 2:14.0 3:3.0 3:-3.0 4:-3.0 4:3.0 5:3.0 6:3.0 5:-3.0 6:-3.0 
-0.0 -6.795848111449752E-4 -0.0 -1.0 -1.0 0.0 1:3.0 2:14.0 
-0.6791177623014664 -0.0 -0.0 -0.6191950657537656 -0.0 -0.0 1:2.0 2:16.0 3:-3.0 4:-3.0 5:-3.0 6:-3.0 
-1.0 -0.0 -0.0 -1.0 -0.7791140786809421 -0.8487924593073731 1:2.0 2:16.0 3:-3.0 4:-3.0 5:-3.0 6:-3.0 
-0.9795940130692431 -1.0 -1.0 -1.0 -0.9979806664550868 -0.9888114901351619 1:2.0 2:16.0 3:-3.0 4:-3.0 5:-3.0 6:-3.0 
